{"learner":{"attributes":{"best_iteration":"299","best_ntree_limit":"300","scikit_learn":"{\"use_label_encoder\": false, \"n_estimators\": 300, \"objective\": \"binary:logistic\", \"max_depth\": null, \"learning_rate\": null, \"verbosity\": null, \"booster\": null, \"tree_method\": null, \"gamma\": null, \"min_child_weight\": null, \"max_delta_step\": null, \"subsample\": null, \"colsample_bytree\": null, \"colsample_bylevel\": null, \"colsample_bynode\": null, \"reg_alpha\": null, \"reg_lambda\": null, \"scale_pos_weight\": 1, \"base_score\": null, \"missing\": NaN, \"num_parallel_tree\": null, \"random_state\": null, \"n_jobs\": null, \"monotone_constraints\": null, \"interaction_constraints\": null, \"importance_type\": null, \"gpu_id\": null, \"validate_parameters\": null, \"predictor\": null, \"enable_categorical\": false, \"kwargs\": {\"grow_policy\": \"depthwise\"}, \"classes_\": [0, 1], \"n_classes_\": 2, \"_estimator_type\": \"classifier\"}"},"feature_names":["RevolverStatus","TermInMonths","BorrBankSameState","TotPctDefault","YearlyDefaultCounts","YearlyPctDefault","subpgmdesc__Community Advantage Initiative","subpgmdesc__Community Express","subpgmdesc__Contract Guaranty","subpgmdesc__Defense Loans and Technical Assistance, Funded 9/26/95","subpgmdesc__EXPORT IMPORT HARMONIZATION","subpgmdesc__FA$TRK (Small Loan Express)","subpgmdesc__Guaranty","subpgmdesc__Gulf Opportunity","subpgmdesc__International Trade - Sec, 7(a) (16)","subpgmdesc__Lender Advantage Initiative","subpgmdesc__Patriot Express","subpgmdesc__Revolving Line of Credit Exports - Sec. 7(a) (14)","subpgmdesc__Rural Lender Advantage","subpgmdesc__Seasonal Line of Credit","subpgmdesc__Small Asset Based","subpgmdesc__Small General Contractors - Sec. 7(a) (9)","subpgmdesc__Standard Asset Based","subpgmdesc__USCAIP Guaranty (NAFTA)","subpgmdesc__Y2K Loan","NaicsCode__21","NaicsCode__22","NaicsCode__23","NaicsCode__31","NaicsCode__32","NaicsCode__33","NaicsCode__42","NaicsCode__44","NaicsCode__45","NaicsCode__48","NaicsCode__49","NaicsCode__51","NaicsCode__52","NaicsCode__53","NaicsCode__54","NaicsCode__55","NaicsCode__56","NaicsCode__61","NaicsCode__62","NaicsCode__71","NaicsCode__72","NaicsCode__81","NaicsCode__92","ApprovalFiscalYear__2001","ApprovalFiscalYear__2002","ApprovalFiscalYear__2003","ApprovalFiscalYear__2004","ApprovalFiscalYear__2005","ApprovalFiscalYear__2006","ApprovalFiscalYear__2007","ApprovalFiscalYear__2008","ApprovalFiscalYear__2009","ApprovalFiscalYear__2010","ApprovalFiscalYear__2011","ApprovalFiscalYear__2012","ApprovalFiscalYear__2013","ApprovalFiscalYear__2014","ApprovalFiscalYear__2015","ApprovalFiscalYear__2016","ApprovalFiscalYear__2017","ApprovalFiscalYear__2018","ApprovalFiscalYear__2019","ApprovalFiscalYear__2020","ApprovalFiscalYear__2021","ApprovalFiscalYear__2022"],"feature_types":["int","int","int","float","int","float","int","int","int","int","int","int","int","int","int","int","int","int","int","int","int","int","int","int","int","int","int","int","int","int","int","int","int","int","int","int","int","int","int","int","int","int","int","int","int","int","int","int","int","int","int","int","int","int","int","int","int","int","int","int","int","int","int","int","int","int","int","int","int","int"],"gradient_booster":{"model":{"gbtree_model_param":{"num_trees":"300","size_leaf_vector":"0"},"tree_info":[0,0,0,0,0,0,0,0,0,0,0,0,0,0,0,0,0,0,0,0,0,0,0,0,0,0,0,0,0,0,0,0,0,0,0,0,0,0,0,0,0,0,0,0,0,0,0,0,0,0,0,0,0,0,0,0,0,0,0,0,0,0,0,0,0,0,0,0,0,0,0,0,0,0,0,0,0,0,0,0,0,0,0,0,0,0,0,0,0,0,0,0,0,0,0,0,0,0,0,0,0,0,0,0,0,0,0,0,0,0,0,0,0,0,0,0,0,0,0,0,0,0,0,0,0,0,0,0,0,0,0,0,0,0,0,0,0,0,0,0,0,0,0,0,0,0,0,0,0,0,0,0,0,0,0,0,0,0,0,0,0,0,0,0,0,0,0,0,0,0,0,0,0,0,0,0,0,0,0,0,0,0,0,0,0,0,0,0,0,0,0,0,0,0,0,0,0,0,0,0,0,0,0,0,0,0,0,0,0,0,0,0,0,0,0,0,0,0,0,0,0,0,0,0,0,0,0,0,0,0,0,0,0,0,0,0,0,0,0,0,0,0,0,0,0,0,0,0,0,0,0,0,0,0,0,0,0,0,0,0,0,0,0,0,0,0,0,0,0,0,0,0,0,0,0,0,0,0,0,0,0,0,0,0,0,0,0,0,0,0,0,0,0,0,0,0,0,0,0,0],"trees":[{"base_weights":[-1.2519515E0,2.8835133E-1,-1.6387167E0,-6.694631E-1,9.873084E-1,-1.8195933E0,-1.0652384E0,-1.758037E0,-3.144654E-1,3.919521E-1,1.1812321E0,-1.9080391E0,-1.67579E0,5.530232E-1,-1.483665E0,-1.9836099E0,-1.3552152E0,1.0154467E0,-5.086042E-1,1.2281777E0,2.3685704E-1,8.8763076E-1,1.4833233E0,-1.7795607E0,-1.9416022E0,-1.3195238E0,-1.7714217E0,-1.4145235E0,1.2996794E0,-1.9408665E0,-9.4415766E-1,-1.9969594E0,-1.7486535E0,-1.4150943E-1,-1.4557662E0,1.0738578E0,-1.4782609E0,-7.0760846E-1,5.793978E-1,1.2567358E0,-1.2E0,-1.3934911E0,3.7231034E-1,1.0707955E0,-7.4595916E-1,1.179315E0,1.5537686E0,-1.9792591E0,-1.2492001E0,-1.9959481E0,-1.893283E0,-1.9194413E0,-3.4566456E-1,-1.9731197E0,-1.5923294E0,-1.6767547E0,-4.6635732E-1,6.1628526E-1,1.5516834E0,-6.869565E-1,-1.9601494E0,5.156835E-1,-1.4888316E0,-1.1764706E-1,-1.7867647E0,-1.0434783E0,1.0714286E-1,-1.5777577E0,-6.086956E-1,7.428161E-1,1.3754109E0,1.0769231E0,-1.6899225E0,-1.7404718E0,-5.5617607E-1,3.7949565E-1,1.2330624E0,1.2771536E0,-1.1724138E0,-1.4117647E0,-0E0,-1.7192118E0,-8.9705884E-1,8.7903106E-1,2.5866529E-2,8.5606956E-1,1.4480416E0,-1.3306499E0,-8.549223E-2,1.4381771E0,9.6679866E-1,1.4573151E0,1.6375868E0,-1.9816784E0,-1.8130841E0,-1.7359301E0,-8.5555685E-1,-1.4439462E0,-1.9476098E0,-1.9270418E0,-8.176101E-1,3.199583E-1,-8.290221E-1,-1.6414112E0,-1.9823815E0,-8.43556E-1,-1.7640069E0,-1.7116585E0,6.349207E-2,-7.4531573E-1,9.407666E-1,1.2468619E0,1.5195325E-1,1.6237364E0,1.3824683E0,1.5629139E0,-1.7749196E0,-1.9608827E0,1.4666667E0,9.214273E-1,-1.3127475E0,-1.9168558E0,-1.0017785E0],"categories":[],"categories_nodes":[],"categories_segments":[],"categories_sizes":[],"default_left":[true,true,true,true,true,true,true,true,true,true,true,true,true,true,true,true,true,true,true,true,true,true,true,true,true,true,true,true,true,true,true,false,true,true,true,true,true,true,true,true,true,true,true,true,true,true,true,true,true,false,true,true,true,true,true,true,true,true,true,true,true,true,true,false,false,false,false,false,false,false,false,false,false,false,false,false,false,false,false,false,false,false,false,false,false,false,false,false,false,false,false,false,false,false,false,false,false,false,false,false,false,false,false,false,false,false,false,false,false,false,false,false,false,false,false,false,false,false,false,false,false,false,false],"id":0,"left_children":[1,3,5,7,9,11,13,15,17,19,21,23,25,27,29,31,33,35,37,39,41,43,45,47,49,51,53,55,57,59,61,-1,63,65,67,69,71,73,75,77,79,81,83,85,87,89,91,93,95,-1,97,99,101,103,105,107,109,111,113,115,117,119,121,-1,-1,-1,-1,-1,-1,-1,-1,-1,-1,-1,-1,-1,-1,-1,-1,-1,-1,-1,-1,-1,-1,-1,-1,-1,-1,-1,-1,-1,-1,-1,-1,-1,-1,-1,-1,-1,-1,-1,-1,-1,-1,-1,-1,-1,-1,-1,-1,-1,-1,-1,-1,-1,-1,-1,-1,-1,-1,-1,-1],"loss_changes":[1.0902097E5,2.459E4,1.5170781E4,5.9877397E3,2.4511406E3,1.411125E3,2.3751105E4,3.435547E2,3.017825E3,6.765519E2,1.4192793E3,2.9340625E2,1.4407188E3,1.0589137E4,6.8725547E3,4.163086E0,1.6710986E2,2.1847583E2,2.2085583E3,5.8110474E1,9.7297034E2,2.4319302E3,1.6719922E2,1.5090547E3,1.3953125E2,5.2383203E3,1.2029609E3,4.9226855E2,8.988408E2,3.633828E2,1.0167396E4,0E0,8.445557E0,2.388512E1,1.298623E2,1.44276E2,2.0478706E1,1.3475903E3,2.0566223E2,4.1535156E1,2.5411777E0,5.3111816E1,7.138524E2,5.905996E2,3.164481E2,8.052295E1,4.9393555E1,5.7421875E-1,7.469927E2,0E0,7.02875E2,4.489258E1,1.1004341E3,4.4976562E1,2.2726172E3,9.443994E1,1.698812E2,4.1243457E2,4.4288086E1,5.657625E2,4.0203125E1,2.5792239E3,1.9393574E3,0E0,0E0,0E0,0E0,0E0,0E0,0E0,0E0,0E0,0E0,0E0,0E0,0E0,0E0,0E0,0E0,0E0,0E0,0E0,0E0,0E0,0E0,0E0,0E0,0E0,0E0,0E0,0E0,0E0,0E0,0E0,0E0,0E0,0E0,0E0,0E0,0E0,0E0,0E0,0E0,0E0,0E0,0E0,0E0,0E0,0E0,0E0,0E0,0E0,0E0,0E0,0E0,0E0,0E0,0E0,0E0,0E0,0E0,0E0,0E0],"parents":[2147483647,0,0,1,1,2,2,3,3,4,4,5,5,6,6,7,7,8,8,9,9,10,10,11,11,12,12,13,13,14,14,15,15,16,16,17,17,18,18,19,19,20,20,21,21,22,22,23,23,24,24,25,25,26,26,27,27,28,28,29,29,30,30,32,32,33,33,34,34,35,35,36,36,37,37,38,38,39,39,40,40,41,41,42,42,43,43,44,44,45,45,46,46,47,47,48,48,50,50,51,51,52,52,53,53,54,54,55,55,56,56,57,57,58,58,59,59,60,60,61,61,62,62],"right_children":[2,4,6,8,10,12,14,16,18,20,22,24,26,28,30,32,34,36,38,40,42,44,46,48,50,52,54,56,58,60,62,-1,64,66,68,70,72,74,76,78,80,82,84,86,88,90,92,94,96,-1,98,100,102,104,106,108,110,112,114,116,118,120,122,-1,-1,-1,-1,-1,-1,-1,-1,-1,-1,-1,-1,-1,-1,-1,-1,-1,-1,-1,-1,-1,-1,-1,-1,-1,-1,-1,-1,-1,-1,-1,-1,-1,-1,-1,-1,-1,-1,-1,-1,-1,-1,-1,-1,-1,-1,-1,-1,-1,-1,-1,-1,-1,-1,-1,-1,-1,-1,-1,-1],"split_conditions":[5.95E1,1.705187E-1,2.5655764E-1,4.883469E-2,2.4373731E-1,1.1751354E-1,8.25E1,1.77005E-2,1.15E1,1.15E1,3.65E1,8.35E1,8.25E1,6.05E1,8.45E1,1.1564171E-2,1.15E1,5E-1,5E-1,5E-1,1.25E1,3.55E1,3.047163E-1,6.05E1,8.45E1,6.05E1,8.45E1,4.1471353E-1,3.4786052E-1,8.35E1,1.155E2,-5.9908783E-1,5.5E0,2.790758E-2,5E-1,5E-1,2.5E0,1.25E1,4.85E1,5E-1,5E-1,7.05E1,3.55E1,2.45E1,3.352849E-1,4.75E1,1.956E3,2.8E2,5.783166E-2,-5.9878445E-1,1.135E2,2.395E3,5E-1,8.35E1,1.165E2,5E-1,5E-1,5E-1,7.15E1,5E-1,9.253472E-1,5E-1,1.265E2,-3.529412E-2,-5.3602946E-1,-3.1304348E-1,3.214286E-2,-4.7332734E-1,-1.826087E-1,2.2284484E-1,4.126233E-1,3.2307696E-1,-5.069768E-1,-5.221416E-1,-1.6685283E-1,1.138487E-1,3.6991873E-1,3.831461E-1,-3.5172415E-1,-4.2352945E-1,-0E0,-5.157636E-1,-2.6911765E-1,2.6370934E-1,7.759959E-3,2.568209E-1,4.3441248E-1,-3.99195E-1,-2.564767E-2,4.3145314E-1,2.900396E-1,4.3719456E-1,4.9127606E-1,-5.945035E-1,-5.439253E-1,-5.207791E-1,-2.5666708E-1,-4.3318388E-1,-5.8428293E-1,-5.7811254E-1,-2.4528304E-1,9.598749E-2,-2.4870664E-1,-4.924234E-1,-5.9471446E-1,-2.530668E-1,-5.292021E-1,-5.134976E-1,1.9047622E-2,-2.2359473E-1,2.8223E-1,3.740586E-1,4.5585975E-2,4.8712093E-1,4.1474053E-1,4.688742E-1,-5.324759E-1,-5.882648E-1,4.4000003E-1,2.764282E-1,-3.9382425E-1,-5.750568E-1,-3.0053356E-1],"split_indices":[1,5,5,5,5,5,1,5,1,1,1,1,1,1,1,5,1,8,12,17,1,1,5,1,1,1,1,5,5,1,1,0,1,5,12,0,1,1,1,8,0,4,1,1,5,1,4,4,5,0,1,4,11,1,1,7,0,11,1,11,5,11,1,0,0,0,0,0,0,0,0,0,0,0,0,0,0,0,0,0,0,0,0,0,0,0,0,0,0,0,0,0,0,0,0,0,0,0,0,0,0,0,0,0,0,0,0,0,0,0,0,0,0,0,0,0,0,0,0,0,0,0,0],"split_type":[0,0,0,0,0,0,0,0,0,0,0,0,0,0,0,0,0,0,0,0,0,0,0,0,0,0,0,0,0,0,0,0,0,0,0,0,0,0,0,0,0,0,0,0,0,0,0,0,0,0,0,0,0,0,0,0,0,0,0,0,0,0,0,0,0,0,0,0,0,0,0,0,0,0,0,0,0,0,0,0,0,0,0,0,0,0,0,0,0,0,0,0,0,0,0,0,0,0,0,0,0,0,0,0,0,0,0,0,0,0,0,0,0,0,0,0,0,0,0,0,0,0,0],"sum_hessian":[1.830005E5,3.67285E4,1.46272E5,1.5495E4,2.12335E4,1.1119775E5,3.507425E4,3.8095E3,1.16855E4,5.21775E3,1.601575E4,6.88435E4,4.235425E4,7.20575E3,2.78685E4,2.4395E3,1.37E3,1.488E3,1.01975E4,8.1525E2,4.4025E3,8.124E3,7.89175E3,1.42705E4,5.4573E4,8.96625E3,3.3388E4,1.982E3,5.22375E3,1.50835E4,1.2785E4,2.30125E3,1.3825E2,1.05E2,1.265E3,1.4545E3,3.35E1,8.621E3,1.5765E3,8.0625E2,9E0,3.37E2,4.0655E3,7.30525E3,8.1875E2,1.488E3,6.40375E3,1.0365E4,3.9055E3,2.566575E4,2.890725E4,5.54775E3,3.4185E3,1.569825E4,1.768975E4,1.552E3,4.3E2,1.40825E3,3.8155E3,2.29E2,1.48545E4,3.474E3,9.311E3,3.25E0,1.35E2,2.2E1,8.3E1,1.105E3,1.6E2,6.95E2,7.595E2,2.25E0,3.125E1,1.101E3,7.52E3,1.2085E3,3.68E2,8E2,6.25E0,7.5E0,1.5E0,2.02E2,1.35E2,1.65025E3,2.41525E3,4.6575E3,2.64775E3,4.3375E2,3.85E2,6.6825E2,8.1975E2,2.986E3,3.41775E3,1.02055E4,1.595E2,1.74475E3,2.16075E3,3.121E3,2.578625E4,5.509E3,3.875E1,1.43825E3,1.98025E3,4.3125E2,1.5267E4,3.3005E3,1.438925E4,1.5215E3,3.05E1,3.5925E2,7.075E1,5.965E2,8.1175E2,2.67E3,1.1455E3,7.45E1,1.545E2,1.485175E4,2.75E0,2.8435E3,6.305E2,4.95425E3,4.35675E3],"tree_param":{"num_deleted":"0","num_feature":"70","num_nodes":"123","size_leaf_vector":"0"}},{"base_weights":[-9.457583E-1,2.0885164E-1,-1.2481492E0,-4.3642172E-1,7.659905E-1,-1.3835095E0,-7.7812344E-1,-1.2815824E0,-1.6744539E-1,5.356785E-1,1.0328499E0,-1.4442657E0,-1.2042248E0,4.7835296E-1,-1.1086702E0,-1.5165777E0,-9.2787224E-1,7.680841E-1,-3.102302E-1,7.406146E-1,-9.3328136E-1,-3.3707704E-2,1.068688E0,-1.311163E0,-1.4790001E0,-1.0142145E0,-1.3836085E0,-1.0190644E0,1.0275946E0,-1.4855917E0,-6.586224E-1,-1.5444837E0,-1.2779479E0,5.4214455E-2,-1.0143821E0,4.6530235E-1,1.0125194E0,-4.635875E-1,6.9283235E-1,7.6809216E-1,-1.8557364E0,-1.3362983E0,-8.6755574E-2,1.4544376E0,-5.301719E-1,9.298663E-1,1.2235732E0,-1.523983E0,-7.9239225E-1,-1.5413913E0,-1.424834E0,-2.7495965E-1,-1.1278993E0,-1.0593811E0,-1.502864E0,-1.2941089E0,-3.2111436E-1,4.9118063E-1,1.174303E0,-4.1141486E-1,-1.51234E0,4.4095263E-1,-1.103509E0,9.080222E-1,-1.3006245E0,-4.041572E-1,6.094688E-1,-1.1140407E0,-5.82632E-2,1.1476874E0,2.7793103E-1,1.0388592E0,-1.6037308E0,-2.396456E-1,-1.6218202E0,8.0220026E-1,-3.8702633E-2,6.0747474E-1,1.0784314E0,-6.3610774E-1,-1.992785E0,-1.6490533E0,-9.9408495E-1,-3.821501E-1,6.9098717E-1,1.485329E0,-4.656071E-3,-1.7837247E0,1.1558793E0,1.1900995E0,-4.9225962E-1,1.2524164E0,9.489066E-1,-1.5377189E0,-1.4878294E0,-1.5704105E0,-6.278839E-1,-1.410559E0,-1.5435871E0,-1.0259925E0,-1.4816711E0,-1.3769097E0,4.7478956E-1,-1.0560309E0,-1.602183E0,-1.4761752E0,-1.6743289E-1,-1.508648E0,-3.238147E-1,-1.427823E0,-9.8477966E-1,-5.7964206E-1,1.6262392E0,7.231184E-1,-7.198537E-1,7.8820205E-1,1.1991324E0,1.2231559E0,-1.4790804E0,-1.5247308E0,-1.3127539E0,8.450317E-1,-1.0304277E0,-1.4819806E0,-6.807823E-1],"categories":[],"categories_nodes":[],"categories_segments":[],"categories_sizes":[],"default_left":[true,true,true,true,true,true,true,true,true,true,true,true,true,true,true,true,true,true,true,true,true,true,true,true,true,true,true,true,true,true,true,false,true,true,true,true,true,true,true,true,true,true,true,true,true,true,true,true,true,true,true,true,true,true,true,true,true,true,true,true,true,true,true,false,false,false,false,false,false,false,false,false,false,false,false,false,false,false,false,false,false,false,false,false,false,false,false,false,false,false,false,false,false,false,false,false,false,false,false,false,false,false,false,false,false,false,false,false,false,false,false,false,false,false,false,false,false,false,false,false,false,false,false,false,false],"id":1,"left_children":[1,3,5,7,9,11,13,15,17,19,21,23,25,27,29,31,33,35,37,39,41,43,45,47,49,51,53,55,57,59,61,-1,63,65,67,69,71,73,75,77,79,81,83,85,87,89,91,93,95,97,99,101,103,105,107,109,111,113,115,117,119,121,123,-1,-1,-1,-1,-1,-1,-1,-1,-1,-1,-1,-1,-1,-1,-1,-1,-1,-1,-1,-1,-1,-1,-1,-1,-1,-1,-1,-1,-1,-1,-1,-1,-1,-1,-1,-1,-1,-1,-1,-1,-1,-1,-1,-1,-1,-1,-1,-1,-1,-1,-1,-1,-1,-1,-1,-1,-1,-1,-1,-1,-1,-1],"loss_changes":[5.9906953E4,1.2802924E4,8.649797E3,3.7509907E3,1.174042E3,1.1481719E3,1.2628279E4,3.2971143E2,1.6724741E3,3.0894353E3,3.3839453E2,3.6257812E2,9.095469E2,5.2099053E3,4.0824492E3,1.3954102E1,1.3537329E2,1.2223419E2,1.6711471E3,6.438213E2,4.2859045E2,2.1409952E2,1.8300879E2,1.8012129E3,2.0907812E2,1.090751E3,5.298594E2,3.2595398E2,3.6412305E2,3.7576172E2,5.368602E3,0E0,1.3882019E1,3.330521E1,1.3941711E2,9.4608185E1,6.48244E1,2.443435E3,1.153056E2,4.4351904E2,1.4543121E1,8.946753E1,9.362207E1,3.274704E0,4.612245E2,1.6735701E3,3.0855469E1,3.4609375E0,6.071218E2,6.1640625E0,7.5739844E2,1.431346E3,3.8183105E2,1.3750464E3,6.802344E1,4.9022583E1,2.4356291E2,2.805569E2,3.3933594E1,5.596462E2,2.9605469E1,1.8806608E3,1.2489746E3,0E0,0E0,0E0,0E0,0E0,0E0,0E0,0E0,0E0,0E0,0E0,0E0,0E0,0E0,0E0,0E0,0E0,0E0,0E0,0E0,0E0,0E0,0E0,0E0,0E0,0E0,0E0,0E0,0E0,0E0,0E0,0E0,0E0,0E0,0E0,0E0,0E0,0E0,0E0,0E0,0E0,0E0,0E0,0E0,0E0,0E0,0E0,0E0,0E0,0E0,0E0,0E0,0E0,0E0,0E0,0E0,0E0,0E0,0E0,0E0,0E0,0E0],"parents":[2147483647,0,0,1,1,2,2,3,3,4,4,5,5,6,6,7,7,8,8,9,9,10,10,11,11,12,12,13,13,14,14,15,15,16,16,17,17,18,18,19,19,20,20,21,21,22,22,23,23,24,24,25,25,26,26,27,27,28,28,29,29,30,30,32,32,33,33,34,34,35,35,36,36,37,37,38,38,39,39,40,40,41,41,42,42,43,43,44,44,45,45,46,46,47,47,48,48,49,49,50,50,51,51,52,52,53,53,54,54,55,55,56,56,57,57,58,58,59,59,60,60,61,61,62,62],"right_children":[2,4,6,8,10,12,14,16,18,20,22,24,26,28,30,32,34,36,38,40,42,44,46,48,50,52,54,56,58,60,62,-1,64,66,68,70,72,74,76,78,80,82,84,86,88,90,92,94,96,98,100,102,104,106,108,110,112,114,116,118,120,122,124,-1,-1,-1,-1,-1,-1,-1,-1,-1,-1,-1,-1,-1,-1,-1,-1,-1,-1,-1,-1,-1,-1,-1,-1,-1,-1,-1,-1,-1,-1,-1,-1,-1,-1,-1,-1,-1,-1,-1,-1,-1,-1,-1,-1,-1,-1,-1,-1,-1,-1,-1,-1,-1,-1,-1,-1,-1,-1,-1,-1,-1,-1],"split_conditions":[5.95E1,1.9121665E-1,2.7151674E-1,5.611022E-2,3.65E1,1.62067E-1,8.15E1,2.3543268E-2,1.15E1,3.55E1,1.925394E-1,8.25E1,5E-1,6.05E1,8.45E1,1.3043725E-2,1.15E1,8.35E1,4.85E1,5E-1,3.2536006E-1,4.75E1,4.85E1,6.05E1,8.45E1,8.35E1,8.05E1,2.3734443E-1,2.0167968E-1,8.35E1,1.165E2,-4.633451E-1,2.5E0,4.5E0,4.85E1,2.5E0,5E-1,4.75E1,5.85E1,2.45E1,8.5E0,2.3950997E-1,3.3576983E-1,5E-1,4.85E1,4.75E1,5.85E1,1.4328092E-1,1.6495477E-2,8.35E1,1.135E2,6.05E1,2.985E2,6.05E1,5E-1,5E-1,5E-1,2.0069444E-1,3.35E1,5E-1,5E-1,1.319E3,1.265E2,2.7240667E-1,-3.9018735E-1,-1.21247165E-1,1.8284065E-1,-3.3421224E-1,-1.7478961E-2,3.4430623E-1,8.337931E-2,3.116578E-1,-4.8111925E-1,-7.1893685E-2,-4.8654607E-1,2.4066009E-1,-1.161079E-2,1.8224242E-1,3.2352942E-1,-1.9083233E-1,-5.9783554E-1,-4.9471602E-1,-2.982255E-1,-1.1464504E-1,2.0729616E-1,4.4559872E-1,-1.3968213E-3,-5.3511745E-1,3.467638E-1,3.5702986E-1,-1.476779E-1,3.7572494E-1,2.84672E-1,-4.613157E-1,-4.4634885E-1,-4.7112316E-1,-1.8836518E-1,-4.2316774E-1,-4.6307614E-1,-3.0779776E-1,-4.4450134E-1,-4.1307294E-1,1.4243688E-1,-3.1680927E-1,-4.8065493E-1,-4.428526E-1,-5.022987E-2,-4.5259443E-1,-9.714441E-2,-4.283469E-1,-2.954339E-1,-1.7389262E-1,4.8787177E-1,2.1693553E-1,-2.1595612E-1,2.3646063E-1,3.5973975E-1,3.6694676E-1,-4.4372416E-1,-4.5741925E-1,-3.938262E-1,2.5350952E-1,-3.091283E-1,-4.4459417E-1,-2.042347E-1],"split_indices":[1,5,5,5,1,5,1,5,1,1,5,1,11,1,1,5,1,4,1,17,5,1,1,1,1,1,1,3,3,1,1,0,1,4,1,1,17,1,1,1,1,5,3,38,1,1,1,3,5,1,1,1,1,1,66,0,7,3,4,11,12,4,1,0,0,0,0,0,0,0,0,0,0,0,0,0,0,0,0,0,0,0,0,0,0,0,0,0,0,0,0,0,0,0,0,0,0,0,0,0,0,0,0,0,0,0,0,0,0,0,0,0,0,0,0,0,0,0,0,0,0,0,0,0,0],"split_type":[0,0,0,0,0,0,0,0,0,0,0,0,0,0,0,0,0,0,0,0,0,0,0,0,0,0,0,0,0,0,0,0,0,0,0,0,0,0,0,0,0,0,0,0,0,0,0,0,0,0,0,0,0,0,0,0,0,0,0,0,0,0,0,0,0,0,0,0,0,0,0,0,0,0,0,0,0,0,0,0,0,0,0,0,0,0,0,0,0,0,0,0,0,0,0,0,0,0,0,0,0,0,0,0,0,0,0,0,0,0,0,0,0,0,0,0,0,0,0,0,0,0,0,0,0],"sum_hessian":[1.7158081E5,3.561053E4,1.3597028E5,1.6500273E4,1.9110256E4,1.0556673E5,3.0403555E4,3.9826077E3,1.2517667E4,1.0259146E4,8.85111E3,7.88417E4,2.6725016E4,6.33239E3,2.4071166E4,2.390883E3,1.5917247E3,1.6569447E3,1.0860722E4,9.003548E3,1.2555984E3,2.8774567E2,8.563364E3,1.632456E4,6.251715E4,1.2981334E4,1.3743683E4,1.6991312E3,4.633259E3,1.3098602E4,1.0972563E4,2.135661E3,2.5522208E2,1.2889084E2,1.4628339E3,7.414341E2,9.1551056E2,9.420906E3,1.4398159E3,8.909957E3,9.359107E1,8.502363E2,4.0536206E2,7.1498924E1,2.1624673E2,4.5195483E3,4.0438157E3,1.1574364E4,4.7501953E3,2.9039982E4,3.3477164E4,1.7306823E3,1.1250651E4,3.6984255E3,1.0045257E4,1.2182109E3,4.8092032E2,9.959799E2,3.6372788E3,3.1864536E2,1.2779956E4,3.1606807E3,7.811883E3,2.219558E0,2.5300253E2,7.0754196E1,5.813664E1,1.3246023E3,1.3823157E2,1.5862277E2,5.8281134E2,9.069822E2,8.528399E0,7.895529E3,1.5253772E3,1.2524692E3,1.873466E2,5.87321E3,3.036747E3,1.00242605E1,8.356681E1,4.4224332E2,4.0799298E2,2.941497E2,1.1121238E2,6.999895E1,1.4999774E0,1.2399813E2,9.224861E1,3.820587E3,6.989617E2,3.656302E3,3.8751367E2,8.357549E3,3.2168157E3,8.276063E2,3.922589E3,4.8995734E2,2.8550025E4,4.1779985E3,2.9299166E4,7.00411E2,1.0302714E3,9.772976E3,1.4776757E3,2.5201448E3,1.1782808E3,9.99594E3,4.931691E1,8.4802026E2,3.701907E2,4.2517682E2,5.574349E1,8.362281E2,1.5975185E2,2.2175157E2,3.415527E3,1.2584065E2,1.928047E2,1.2026673E4,7.532838E2,2.480027E3,6.806538E2,4.120367E3,3.6915156E3],"tree_param":{"num_deleted":"0","num_feature":"70","num_nodes":"125","size_leaf_vector":"0"}},{"base_weights":[-7.757084E-1,1.5671887E-1,-1.0421765E0,-4.181703E-1,5.189657E-1,-1.1879041E0,-6.9222826E-1,-9.4601077E-1,-9.155357E-2,2.8058723E-1,7.42177E-1,-1.2765462E0,-1.0850616E0,2.2978152E-1,-9.315617E-1,-1.0929472E0,-2.8611383E-1,2.9625028E-1,-4.4508663E-1,1.829837E-1,8.163951E-1,5.5037445E-1,9.369847E-1,-1.18085E0,-1.3023595E0,-8.47716E-1,-1.1505328E0,-9.1879684E-1,7.443197E-1,-1.2810441E0,-5.704134E-1,-1.3239968E0,-9.313612E-1,-1.1199718E0,2.1536744E-1,6.1530966E-2,1.0788685E0,-1.5741334E0,6.712145E-2,3.1671172E-1,-1.1448643E0,9.1148055E-1,1.03376135E-1,6.4127713E-1,-2.8753224E-1,9.860798E-1,7.0040435E-1,-1.3263682E0,-8.205844E-1,-1.3419714E0,-1.2681562E0,-1.2731506E0,-1.9442677E-1,-1.3219392E0,-1.0061562E0,-1.0912545E0,-1.7213765E-1,3.5310912E-1,9.2051697E-1,-4.8112053E-1,-1.3056782E0,3.247777E-1,-8.9898133E-1,-1.3447095E0,-1.1459804E0,-1.0294368E-1,-1.0120349E0,-1.3259121E0,-5.284235E-1,6.907061E-1,-1.21218614E-1,2.9863277E-1,-1.2557428E0,1.0906049E0,-1.0456184E0,-1.6035777E0,-1.3527086E0,9.5528185E-1,-3.686494E-1,1.550387E-1,9.853241E-1,-5.4878014E-1,-1.2525967E0,8.380103E-1,1.1942234E0,1.0394734E0,-2.651297E-1,4.0115908E-1,7.721328E-1,-1.0297427E0,-6.0991146E-2,8.8571125E-1,1.0564579E0,5.2314174E-1,9.224963E-1,-1.3359265E0,-1.2864369E0,-1.002674E0,-2.2452651E-1,-9.658901E-1,-1.3084439E0,-1.285123E0,-5.003292E-1,2.5214255E-1,-6.661419E-1,-1.0392195E0,-1.3352934E0,-4.1048053E-1,-1.142785E0,-1.178404E0,-7.501135E-1,-6.4295864E-1,3.8109785E-1,7.9393715E-1,-1.698527E-1,7.573348E-1,1.0038292E0,9.9884677E-1,-1.2477546E0,-1.3063412E0,1.4333719E0,5.635628E-1,-8.4018534E-1,-1.2595971E0,-5.3328735E-1],"categories":[],"categories_nodes":[],"categories_segments":[],"categories_sizes":[],"default_left":[true,true,true,true,true,true,true,true,true,true,true,true,true,true,true,true,true,true,true,true,true,true,true,true,true,true,true,true,true,true,true,true,true,true,true,true,true,true,true,true,true,true,true,true,true,true,true,true,true,false,true,true,true,true,true,true,true,true,true,true,true,true,true,false,false,false,false,false,false,false,false,false,false,false,false,false,false,false,false,false,false,false,false,false,false,false,false,false,false,false,false,false,false,false,false,false,false,false,false,false,false,false,false,false,false,false,false,false,false,false,false,false,false,false,false,false,false,false,false,false,false,false,false,false,false],"id":2,"left_children":[1,3,5,7,9,11,13,15,17,19,21,23,25,27,29,31,33,35,37,39,41,43,45,47,49,51,53,55,57,59,61,63,65,67,69,71,73,75,77,79,81,83,85,87,89,91,93,95,97,-1,99,101,103,105,107,109,111,113,115,117,119,121,123,-1,-1,-1,-1,-1,-1,-1,-1,-1,-1,-1,-1,-1,-1,-1,-1,-1,-1,-1,-1,-1,-1,-1,-1,-1,-1,-1,-1,-1,-1,-1,-1,-1,-1,-1,-1,-1,-1,-1,-1,-1,-1,-1,-1,-1,-1,-1,-1,-1,-1,-1,-1,-1,-1,-1,-1,-1,-1,-1,-1,-1,-1],"loss_changes":[3.75351E4,6.9928286E3,5.9909453E3,2.2376672E3,1.0958281E3,7.5478125E2,7.623158E3,4.8076562E2,1.0996077E3,5.2086084E2,3.9693896E2,1.085E2,5.958164E2,4.208471E3,3.460836E3,1.5025293E2,3.78643E2,7.025608E2,2.4263794E3,1.4970535E3,1.03966064E2,4.0862512E2,6.058838E1,4.9556836E2,4.5816406E1,2.3086064E3,7.4352344E2,2.8351477E2,3.3865332E2,2.7401172E2,3.9680234E3,4.607422E0,1.5969507E2,4.0719086E1,9.062576E1,9.197198E2,2.31427E1,6.367676E0,1.1177588E3,8.2768396E2,4.8850586E1,2.7128906E1,6.2963787E1,1.516997E2,8.82964E1,2.990918E1,3.5348206E1,8.5546875E-1,2.958894E2,0E0,2.2814844E2,4.5905273E1,6.905763E2,5.055664E1,1.3295332E3,5.232251E1,1.0823461E2,3.525597E2,4.5326904E1,4.7546875E2,2.6423828E1,1.00818933E3,1.3006816E3,0E0,0E0,0E0,0E0,0E0,0E0,0E0,0E0,0E0,0E0,0E0,0E0,0E0,0E0,0E0,0E0,0E0,0E0,0E0,0E0,0E0,0E0,0E0,0E0,0E0,0E0,0E0,0E0,0E0,0E0,0E0,0E0,0E0,0E0,0E0,0E0,0E0,0E0,0E0,0E0,0E0,0E0,0E0,0E0,0E0,0E0,0E0,0E0,0E0,0E0,0E0,0E0,0E0,0E0,0E0,0E0,0E0,0E0,0E0,0E0,0E0,0E0],"parents":[2147483647,0,0,1,1,2,2,3,3,4,4,5,5,6,6,7,7,8,8,9,9,10,10,11,11,12,12,13,13,14,14,15,15,16,16,17,17,18,18,19,19,20,20,21,21,22,22,23,23,24,24,25,25,26,26,27,27,28,28,29,29,30,30,31,31,32,32,33,33,34,34,35,35,36,36,37,37,38,38,39,39,40,40,41,41,42,42,43,43,44,44,45,45,46,46,47,47,48,48,50,50,51,51,52,52,53,53,54,54,55,55,56,56,57,57,58,58,59,59,60,60,61,61,62,62],"right_children":[2,4,6,8,10,12,14,16,18,20,22,24,26,28,30,32,34,36,38,40,42,44,46,48,50,52,54,56,58,60,62,64,66,68,70,72,74,76,78,80,82,84,86,88,90,92,94,96,98,-1,100,102,104,106,108,110,112,114,116,118,120,122,124,-1,-1,-1,-1,-1,-1,-1,-1,-1,-1,-1,-1,-1,-1,-1,-1,-1,-1,-1,-1,-1,-1,-1,-1,-1,-1,-1,-1,-1,-1,-1,-1,-1,-1,-1,-1,-1,-1,-1,-1,-1,-1,-1,-1,-1,-1,-1,-1,-1,-1,-1,-1,-1,-1,-1,-1,-1,-1,-1,-1,-1,-1],"split_conditions":[5.95E1,1.5819556E-1,2.338381E-1,7.5E0,3.190909E-1,9.3339145E-2,8.15E1,5E-1,3.55E1,4.85E1,3.65E1,8.35E1,8.15E1,6.05E1,8.45E1,2.1622254E-2,3.8711287E-2,2.45E1,3.65E1,4.75E1,5.85E1,3.55E1,5E-1,6.05E1,8.45E1,6.05E1,8.45E1,4.0925133E-1,2.036481E-1,8.35E1,1.135E2,5E-1,1.05E1,1.7937582E-2,3.55E1,2.35E1,5E-1,1.9892004E-1,4.75E1,3.65E1,5E-1,1.469E3,5E-1,1.35E1,3.2536006E-1,4.2197692E-1,5.1658875E-1,5E-1,1.6355835E-1,-4.0259144E-1,1.165E2,1.4955E3,7.15E1,8.35E1,1.135E2,2.036481E-1,1.94E3,7.05E1,4.203302E-1,5E-1,9.253472E-1,5E-1,1.265E2,-4.0341288E-1,-3.437941E-1,-3.0883105E-2,-3.0361047E-1,-3.9777365E-1,-1.5852705E-1,2.0721184E-1,-3.6365587E-2,8.9589834E-2,-3.7672284E-1,3.271815E-1,-3.1368554E-1,-4.8107335E-1,-4.058126E-1,2.8658456E-1,-1.10594824E-1,4.6511613E-2,2.9559723E-1,-1.6463405E-1,-3.7577903E-1,2.514031E-1,3.5826704E-1,3.1184202E-1,-7.953891E-2,1.2034773E-1,2.3163985E-1,-3.0892283E-1,-1.8297344E-2,2.657134E-1,3.169374E-1,1.5694253E-1,2.767489E-1,-4.0077797E-1,-3.859311E-1,-3.008022E-1,-6.735796E-2,-2.8976706E-1,-3.9253318E-1,-3.855369E-1,-1.5009877E-1,7.5642765E-2,-1.9984259E-1,-3.1176585E-1,-4.0058804E-1,-1.23144165E-1,-3.428355E-1,-3.535212E-1,-2.2503406E-1,-1.928876E-1,1.1432936E-1,2.3818116E-1,-5.0955813E-2,2.2720046E-1,3.0114877E-1,2.9965404E-1,-3.7432638E-1,-3.9190236E-1,4.300116E-1,1.6906884E-1,-2.5205562E-1,-3.7787914E-1,-1.5998621E-1],"split_indices":[1,5,5,4,5,5,1,12,1,1,1,1,1,1,1,5,5,1,1,1,1,1,7,1,1,1,1,5,3,1,1,4,1,5,1,1,22,3,1,1,11,4,11,1,5,5,5,0,3,0,1,4,1,1,1,3,4,1,5,11,5,11,1,0,0,0,0,0,0,0,0,0,0,0,0,0,0,0,0,0,0,0,0,0,0,0,0,0,0,0,0,0,0,0,0,0,0,0,0,0,0,0,0,0,0,0,0,0,0,0,0,0,0,0,0,0,0,0,0,0,0,0,0,0,0],"split_type":[0,0,0,0,0,0,0,0,0,0,0,0,0,0,0,0,0,0,0,0,0,0,0,0,0,0,0,0,0,0,0,0,0,0,0,0,0,0,0,0,0,0,0,0,0,0,0,0,0,0,0,0,0,0,0,0,0,0,0,0,0,0,0,0,0,0,0,0,0,0,0,0,0,0,0,0,0,0,0,0,0,0,0,0,0,0,0,0,0,0,0,0,0,0,0,0,0,0,0,0,0,0,0,0,0,0,0,0,0,0,0,0,0,0,0,0,0,0,0,0,0,0,0,0,0],"sum_hessian":[1.5106802E5,3.357668E4,1.17491336E5,1.2978896E4,2.0597785E4,8.2947445E4,3.454389E4,4.9604653E3,8.018431E3,9.961577E3,1.0636208E4,4.4543297E4,3.840415E4,7.118927E3,2.7424963E4,4.056553E3,9.039122E2,3.8239531E3,4.194478E3,8.427714E3,1.5338632E3,5.3613696E3,5.2748384E3,9.472624E3,3.507067E4,8.306269E3,3.009788E4,2.202224E3,4.9167026E3,1.3936294E4,1.348867E4,1.6664818E3,2.3900713E3,3.3899744E2,5.6491473E2,2.9425234E3,8.8142975E2,1.308379E3,2.8860989E3,7.6573057E3,7.704083E2,1.3531357E3,1.8072739E2,4.8368633E3,5.245061E2,4.3657017E3,9.091367E2,6.745362E3,2.7272625E3,1.6232754E4,1.8837918E4,5.02981E3,3.276459E3,1.3757075E4,1.6340806E4,1.7886368E3,4.1358728E2,1.5277177E3,3.388985E3,4.169669E2,1.3519327E4,3.6215857E3,9.867084E3,1.4869205E3,1.7956128E2,2.1229951E2,2.1777717E3,2.505352E2,8.846223E1,2.3375111E2,3.3116364E2,2.4943313E3,4.481922E2,8.7707117E2,4.3585987E0,1.1493062E3,1.5907281E2,9.495646E2,1.9365342E3,6.1672686E3,1.490037E3,1.18858284E2,6.5155005E2,1.0771927E3,2.75943E2,5.0535004E1,1.3019238E2,1.7075686E3,3.129295E3,1.2182585E2,4.0268024E2,1.8050483E3,2.560653E3,5.0746182E2,4.016749E2,5.4163887E3,1.3289733E3,2.0885498E3,6.3871265E2,2.2184656E3,1.6619453E4,4.952425E3,7.7385056E1,1.6833291E3,1.59313E3,6.240574E2,1.3133018E4,3.04951E3,1.3291296E4,1.4227263E3,3.6591046E2,2.2334846E2,1.9023883E2,8.286734E2,6.9904425E2,1.1488484E3,2.2401367E3,1.4218312E2,2.7478375E2,1.3516578E4,2.7485347E0,3.005963E3,6.156228E2,4.9668057E3,4.900278E3],"tree_param":{"num_deleted":"0","num_feature":"70","num_nodes":"125","size_leaf_vector":"0"}},{"base_weights":[-6.5567833E-1,1.1643291E-1,-9.02712E-1,-2.5697976E-1,4.5022398E-1,-1.0681258E0,-6.220163E-1,-1.0647876E0,-1.1720933E-1,3.6447427E-1,7.917556E-1,-1.1506132E0,-9.7261506E-1,3.9416753E-2,-8.0700624E-1,-1.223891E0,-7.701396E-1,-2.3004846E-1,4.6975636E-1,4.1389132E-1,-4.276401E-1,8.189406E-1,5.514224E-1,-1.2424085E0,-1.1111306E0,-8.508808E-1,-1.1128752E0,-8.53882E-1,5.036156E-1,-1.1594889E0,-4.8810938E-1,-1.2301695E0,-1.0208988E0,2.7216008E-1,-8.124366E-1,-5.4416335E-1,3.0797986E-2,1.211318E-1,6.3677186E-1,3.0023852E-1,7.56344E-1,-7.9608953E-1,2.3807514E-1,8.519706E-1,6.338878E-1,1.707143E-1,7.3526514E-1,-1.2476346E0,-1.1961297E0,-9.6604556E-1,-1.1521993E0,-3.7090647E-1,-9.351999E-1,-9.1728944E-1,-1.1950902E0,-1.0118328E0,-1.2737411E-1,-3.418935E-1,6.451046E-1,-4.13678E-1,-1.18509E0,2.0420754E-1,-7.642478E-1,-3.962701E-1,-1.0508262E0,1.0095584E0,1.9165095E-2,-8.966734E-1,-3.235052E-1,1.9386034E-1,-6.4118034E-1,4.9791795E-1,-3.858199E-1,4.6328208E-1,-1.2466971E-1,8.3003986E-1,4.7374952E-1,4.431242E-1,-6.8685883E-1,6.559227E-1,8.8429976E-1,-1.0172642E0,-2.3877639E-1,5.318416E-1,-9.1630477E-1,7.5591075E-1,9.2823225E-1,5.773932E-1,9.4433916E-1,5.644876E-1,-2.7922472E-1,7.603837E-1,2.5584236E-1,-1.1968777E0,-4.547247E-1,-1.2256751E0,-1.0785241E0,-6.847179E-1,1.0516826E0,-8.734915E-1,-1.2562052E0,-1.1741384E0,-4.1193256E-1,-1.2083974E0,-6.59053E-1,-1.0623432E0,-5.0746465E-1,-3.062497E-1,1.2601999E0,2.9443774E-1,-9.877235E-1,8.127055E-1,3.119675E-1,9.0114635E-1,-1.0673314E0,-1.1979994E0,-1.0511171E0,4.1659886E-1,-6.734451E-1,-1.2027702E0,-4.4345018E-1],"categories":[],"categories_nodes":[],"categories_segments":[],"categories_sizes":[],"default_left":[true,true,true,true,true,true,true,true,true,true,true,true,true,true,true,true,true,true,true,true,true,true,true,true,true,true,true,true,true,true,true,false,true,true,true,true,true,true,true,true,true,true,true,true,true,true,true,false,false,true,true,true,true,true,true,true,true,true,true,true,true,true,true,false,false,false,false,false,false,false,false,false,false,false,false,false,false,false,false,false,false,false,false,false,false,false,false,false,false,false,false,false,false,false,false,false,false,false,false,false,false,false,false,false,false,false,false,false,false,false,false,false,false,false,false,false,false,false,false,false,false],"id":3,"left_children":[1,3,5,7,9,11,13,15,17,19,21,23,25,27,29,31,33,35,37,39,41,43,45,47,49,51,53,55,57,59,61,-1,63,65,67,69,71,73,75,77,79,81,83,85,87,89,91,-1,-1,93,95,97,99,101,103,105,107,109,111,113,115,117,119,-1,-1,-1,-1,-1,-1,-1,-1,-1,-1,-1,-1,-1,-1,-1,-1,-1,-1,-1,-1,-1,-1,-1,-1,-1,-1,-1,-1,-1,-1,-1,-1,-1,-1,-1,-1,-1,-1,-1,-1,-1,-1,-1,-1,-1,-1,-1,-1,-1,-1,-1,-1,-1,-1,-1,-1,-1,-1],"loss_changes":[2.4848016E4,3.936069E3,4.581867E3,1.6827751E3,4.8803076E2,4.88125E2,4.4781035E3,1.02118164E2,8.41772E2,5.219503E2,2.1405518E1,1.1936719E2,4.9052734E2,3.3176184E3,3.2141602E3,5.612793E-1,3.4323975E1,8.7339606E2,1.1924841E2,4.881255E2,1.9230525E2,1.7817505E1,2.3882423E1,9.2871094E-1,1.3775195E2,6.234717E2,2.1391211E2,3.1381726E2,6.3004553E2,2.5886914E2,2.870986E3,0E0,4.9316788E-1,5.74827E0,3.033731E1,3.4638123E2,1.1336782E3,5.5986816E1,4.32547E1,1.3292681E3,3.9586304E1,6.193393E1,9.537987E1,1.7946533E1,7.501358E0,2.0179005E1,2.5874329E0,0E0,0E0,6.070376E2,9.697461E1,1.0296743E3,2.5859668E2,5.137178E2,6.633203E1,5.6708252E1,1.2193745E2,3.107201E2,2.5158008E2,3.897194E2,2.1453125E1,7.985737E2,1.5096602E3,0E0,0E0,0E0,0E0,0E0,0E0,0E0,0E0,0E0,0E0,0E0,0E0,0E0,0E0,0E0,0E0,0E0,0E0,0E0,0E0,0E0,0E0,0E0,0E0,0E0,0E0,0E0,0E0,0E0,0E0,0E0,0E0,0E0,0E0,0E0,0E0,0E0,0E0,0E0,0E0,0E0,0E0,0E0,0E0,0E0,0E0,0E0,0E0,0E0,0E0,0E0,0E0,0E0,0E0,0E0,0E0,0E0,0E0],"parents":[2147483647,0,0,1,1,2,2,3,3,4,4,5,5,6,6,7,7,8,8,9,9,10,10,11,11,12,12,13,13,14,14,15,15,16,16,17,17,18,18,19,19,20,20,21,21,22,22,23,23,24,24,25,25,26,26,27,27,28,28,29,29,30,30,32,32,33,33,34,34,35,35,36,36,37,37,38,38,39,39,40,40,41,41,42,42,43,43,44,44,45,45,46,46,49,49,50,50,51,51,52,52,53,53,54,54,55,55,56,56,57,57,58,58,59,59,60,60,61,61,62,62],"right_children":[2,4,6,8,10,12,14,16,18,20,22,24,26,28,30,32,34,36,38,40,42,44,46,48,50,52,54,56,58,60,62,-1,64,66,68,70,72,74,76,78,80,82,84,86,88,90,92,-1,-1,94,96,98,100,102,104,106,108,110,112,114,116,118,120,-1,-1,-1,-1,-1,-1,-1,-1,-1,-1,-1,-1,-1,-1,-1,-1,-1,-1,-1,-1,-1,-1,-1,-1,-1,-1,-1,-1,-1,-1,-1,-1,-1,-1,-1,-1,-1,-1,-1,-1,-1,-1,-1,-1,-1,-1,-1,-1,-1,-1,-1,-1,-1,-1,-1,-1,-1,-1],"split_conditions":[5.95E1,1.9121665E-1,1.925394E-1,4.0660128E-2,4.85E1,8.402036E-2,8.15E1,1.3043725E-2,5E-1,4.75E1,5.85E1,1.6495477E-2,5E-1,6.05E1,8.45E1,5E-1,5.5E0,7.6E1,1.0038109E-1,3.65E1,3.4570915E-1,5E-1,3.0433422E-1,4.791595E-3,8.35E1,8.35E1,7.95E1,2.651332E-1,1.4793772E-1,8.35E1,1.165E2,-3.6905086E-1,4.5321725E-2,2.5E0,5E-1,1.15E1,3.55E1,3.55E1,3.55E1,3.55E1,1.8685E3,5E-1,5E-1,3.4678268E-1,5E-1,5E-1,5E-1,-3.742904E-1,-3.5883892E-1,6.05E1,8.45E1,7.25E1,2.985E2,6.05E1,5E-1,2.217E3,5E-1,5E-1,7.15E1,5E-1,5E-1,5E-1,1.205E2,-1.1888103E-1,-3.1524786E-1,3.0286753E-1,5.7495288E-3,-2.6900202E-1,-9.705156E-2,5.8158103E-2,-1.9235411E-1,1.493754E-1,-1.1574598E-1,1.3898464E-1,-3.7400912E-2,2.4901196E-1,1.4212486E-1,1.3293727E-1,-2.0605765E-1,1.9677682E-1,2.6528993E-1,-3.051793E-1,-7.163292E-2,1.5955248E-1,-2.7489144E-1,2.2677323E-1,2.7846968E-1,1.7321795E-1,2.8330177E-1,1.6934627E-1,-8.376742E-2,2.2811513E-1,7.675271E-2,-3.5906333E-1,-1.3641742E-1,-3.6770254E-1,-3.2355726E-1,-2.0541538E-1,3.155048E-1,-2.6204747E-1,-3.7686157E-1,-3.5224155E-1,-1.2357977E-1,-3.6251923E-1,-1.9771592E-1,-3.18703E-1,-1.522394E-1,-9.187491E-2,3.7805998E-1,8.833133E-2,-2.9631707E-1,2.4381167E-1,9.359025E-2,2.7034393E-1,-3.2019943E-1,-3.5939983E-1,-3.1533512E-1,1.2497966E-1,-2.0203353E-1,-3.6083108E-1,-1.3303506E-1],"split_indices":[1,5,5,5,1,5,1,5,12,1,1,5,11,1,1,4,1,4,5,1,5,7,5,5,1,1,1,3,3,1,1,0,3,1,12,1,1,1,1,1,4,0,2,5,55,0,41,0,0,1,1,1,1,1,65,4,7,11,1,11,12,11,1,0,0,0,0,0,0,0,0,0,0,0,0,0,0,0,0,0,0,0,0,0,0,0,0,0,0,0,0,0,0,0,0,0,0,0,0,0,0,0,0,0,0,0,0,0,0,0,0,0,0,0,0,0,0,0,0,0,0],"split_type":[0,0,0,0,0,0,0,0,0,0,0,0,0,0,0,0,0,0,0,0,0,0,0,0,0,0,0,0,0,0,0,0,0,0,0,0,0,0,0,0,0,0,0,0,0,0,0,0,0,0,0,0,0,0,0,0,0,0,0,0,0,0,0,0,0,0,0,0,0,0,0,0,0,0,0,0,0,0,0,0,0,0,0,0,0,0,0,0,0,0,0,0,0,0,0,0,0,0,0,0,0,0,0,0,0,0,0,0,0,0,0,0,0,0,0,0,0,0,0,0,0],"sum_hessian":[1.3027181E5,3.1577113E4,9.86947E4,1.4904101E4,1.6673014E4,6.2097734E4,3.6596965E4,2.1974197E3,1.2706681E4,1.3328612E4,3.3444006E3,3.331465E4,2.878309E4,7.99862E3,2.8598344E4,1.4248689E3,7.725508E2,1.0658318E4,2.0483623E3,1.2546369E4,7.8224304E2,3.002383E3,3.420176E2,1.0010425E4,2.3304223E4,1.5412965E4,1.3370124E4,2.734856E3,5.263764E3,1.3582602E4,1.5015743E4,1.3772114E3,4.7657475E1,2.9915932E1,7.426349E2,4.8349355E3,5.8233823E3,6.640221E2,1.3843403E3,9.421463E3,3.1249065E3,5.0342154E2,2.7882153E2,2.5445947E3,4.5778818E2,1.120041E2,2.3001352E2,8.971363E3,1.0390619E3,5.146719E3,1.8157502E4,2.3038772E3,1.3109087E4,3.9604768E3,9.409647E3,2.2461301E3,4.8872592E2,7.5437256E2,4.5093916E3,4.5133847E2,1.3131263E4,4.2815557E3,1.07341875E4,2.8301005E0,4.4827374E1,6.8780923E0,2.303784E1,6.3278064E2,1.0985425E2,5.6161804E2,4.2733174E3,2.7452078E3,3.0781746E3,2.772339E2,3.867882E2,6.315393E2,7.5280096E2,8.230605E3,1.1908569E3,1.7542639E3,1.3706425E3,3.5980453E2,1.43617E2,2.2269055E2,5.6130978E1,1.130951E3,1.4136437E3,3.8972708E2,6.806112E1,5.9594326E1,5.240977E1,2.1800542E2,1.2008098E1,3.5450093E3,1.6017102E3,9.083218E3,9.074284E3,1.8879333E3,4.1594388E2,1.0998512E4,2.1105754E3,2.6249934E3,1.3354833E3,9.180484E3,2.2916307E2,2.0406599E3,2.054701E2,4.3360776E2,5.511816E1,3.8025467E2,3.7411786E2,2.9991052E3,1.5102861E3,1.497459E2,3.015926E2,1.1969919E4,1.1613442E3,3.4477322E3,8.338234E2,4.533819E3,6.2003687E3],"tree_param":{"num_deleted":"0","num_feature":"70","num_nodes":"121","size_leaf_vector":"0"}},{"base_weights":[-5.5826277E-1,8.751666E-2,-7.907608E-1,-1.7655896E-1,3.7269238E-1,-9.5497495E-1,-5.2728856E-1,-1.0063202E0,-8.046442E-2,2.3991214E-1,5.546599E-1,-1.0466028E0,-8.343142E-1,2.7146563E-2,-6.919557E-1,-1.1546017E0,-6.799667E-1,-1.7313577E-1,5.9120107E-1,3.3886632E-1,-4.6055382E-1,4.521519E-1,6.9697374E-1,-1.1579125E0,-9.997923E-1,-7.0746446E-1,-9.954678E-1,-7.248224E-1,3.8619268E-1,-1.071834E0,-3.9150774E-1,-7.4224734E-1,-8.709241E-2,-4.0226955E-2,-1.0891647E0,6.9001365E-1,2.335835E-1,3.600523E-1,-1.5889026E0,-8.5518664E-1,1.6428572E-1,3.797323E-1,8.9649E-1,6.2021005E-1,7.938589E-1,-1.170519E0,-1.0986067E0,-8.263817E-1,-1.0517163E0,-4.8323193E-1,-8.9666086E-1,-7.815842E-1,-1.0963027E0,-8.852751E-1,-9.1241665E-2,6.152991E-3,6.418805E-1,-3.5283205E-1,-1.0986484E0,2.4639428E-1,-5.9699106E-1,-6.533859E-1,-1.2099115E0,5.402822E-1,-5.761899E-1,-1.9796391E-1,7.84829E-1,-1.1811359E0,-6.5733635E-1,3.7377518E-1,8.1855816E-1,4.528655E-1,-5.8279824E-1,2.2962837E-1,6.348077E-1,-1.6426222E0,9.900783E-1,-1.196406E0,-5.7225716E-1,-5.002329E-1,4.0085447E-1,2.4987225E-1,5.3336376E-1,8.2385033E-1,1.1853524E0,5.932624E-1,8.327941E-1,8.9355016E-1,6.6213477E-1,-9.9091965E-1,-1.1170118E0,-1.1146199E0,-3.157079E-1,-1.1534048E0,-9.4685984E-1,-6.6539603E-1,2.9229632E-1,-1.1734164E0,-6.8641603E-1,-1.0832279E0,-2.9477504E-1,-1.1471671E0,-8.8140404E-1,-9.6488804E-1,-4.9487942E-1,1.7696962E-1,-8.502899E-1,3.147615E-1,-3.676721E-1,1.2596044E-1,6.885145E-1,7.151661E-1,-9.253701E-1,-9.894559E-1,-1.1251142E0,-1.1809107E-1,8.9437497E-1,-4.5099124E-1,-1.3051788E0],"categories":[],"categories_nodes":[],"categories_segments":[],"categories_sizes":[],"default_left":[true,true,true,true,true,true,true,true,true,true,true,true,true,true,true,false,true,true,true,true,true,true,true,true,true,true,true,true,true,true,true,true,true,true,true,true,true,true,true,true,true,true,true,true,true,false,true,true,true,true,true,true,true,true,true,true,true,true,true,true,true,false,false,false,false,false,false,false,false,false,false,false,false,false,false,false,false,false,false,false,false,false,false,false,false,false,false,false,false,false,false,false,false,false,false,false,false,false,false,false,false,false,false,false,false,false,false,false,false,false,false,false,false,false,false,false,false,false,false],"id":4,"left_children":[1,3,5,7,9,11,13,15,17,19,21,23,25,27,29,-1,31,33,35,37,39,41,43,45,47,49,51,53,55,57,59,61,63,65,67,69,71,73,75,77,79,81,83,85,87,-1,89,91,93,95,97,99,101,103,105,107,109,111,113,115,117,-1,-1,-1,-1,-1,-1,-1,-1,-1,-1,-1,-1,-1,-1,-1,-1,-1,-1,-1,-1,-1,-1,-1,-1,-1,-1,-1,-1,-1,-1,-1,-1,-1,-1,-1,-1,-1,-1,-1,-1,-1,-1,-1,-1,-1,-1,-1,-1,-1,-1,-1,-1,-1,-1,-1,-1,-1,-1],"loss_changes":[1.6802316E4,2.231096E3,3.5595938E3,1.226446E3,3.44026E2,5.5954297E2,2.8846494E3,7.6470825E1,8.582612E2,5.7107837E2,8.733484E1,1.4893945E2,4.466416E2,1.953974E3,2.7799785E3,0E0,1.844136E1,1.4750791E3,5.8916077E1,2.9535724E2,2.5165155E2,1.12137634E2,1.8203613E1,5.084961E0,1.8178906E2,5.191924E2,2.0696191E2,2.3768567E2,4.7596997E2,2.0701758E2,1.7833525E3,1.8051834E1,1.5278301E1,1.3773146E3,6.0194336E1,5.292102E1,6.532679E1,2.5571796E2,1.2521942E1,5.9684082E1,6.2401794E1,5.9863922E1,9.28656E0,7.5668945E0,1.3954346E1,0E0,1.8862305E0,6.88407E2,1.6533008E2,7.923672E2,3.856709E2,4.5354602E2,7.054297E1,5.7522217E1,9.659539E1,2.2751135E2,7.036401E1,2.3806409E2,2.8856445E1,7.830957E2,1.0633384E3,0E0,0E0,0E0,0E0,0E0,0E0,0E0,0E0,0E0,0E0,0E0,0E0,0E0,0E0,0E0,0E0,0E0,0E0,0E0,0E0,0E0,0E0,0E0,0E0,0E0,0E0,0E0,0E0,0E0,0E0,0E0,0E0,0E0,0E0,0E0,0E0,0E0,0E0,0E0,0E0,0E0,0E0,0E0,0E0,0E0,0E0,0E0,0E0,0E0,0E0,0E0,0E0,0E0,0E0,0E0,0E0,0E0,0E0],"parents":[2147483647,0,0,1,1,2,2,3,3,4,4,5,5,6,6,7,7,8,8,9,9,10,10,11,11,12,12,13,13,14,14,16,16,17,17,18,18,19,19,20,20,21,21,22,22,23,23,24,24,25,25,26,26,27,27,28,28,29,29,30,30,31,31,32,32,33,33,34,34,35,35,36,36,37,37,38,38,39,39,40,40,41,41,42,42,43,43,44,44,46,46,47,47,48,48,49,49,50,50,51,51,52,52,53,53,54,54,55,55,56,56,57,57,58,58,59,59,60,60],"right_children":[2,4,6,8,10,12,14,16,18,20,22,24,26,28,30,-1,32,34,36,38,40,42,44,46,48,50,52,54,56,58,60,62,64,66,68,70,72,74,76,78,80,82,84,86,88,-1,90,92,94,96,98,100,102,104,106,108,110,112,114,116,118,-1,-1,-1,-1,-1,-1,-1,-1,-1,-1,-1,-1,-1,-1,-1,-1,-1,-1,-1,-1,-1,-1,-1,-1,-1,-1,-1,-1,-1,-1,-1,-1,-1,-1,-1,-1,-1,-1,-1,-1,-1,-1,-1,-1,-1,-1,-1,-1,-1,-1,-1,-1,-1,-1,-1,-1,-1,-1],"split_conditions":[5.95E1,2.1542712E-1,1.925394E-1,3.5377555E-2,3.65E1,9.1938704E-2,8.15E1,1.1564171E-2,4.85E1,3.55E1,1.956E3,2.2792209E-2,5E-1,6.05E1,8.45E1,-3.4638053E-1,4.85E1,4.75E1,5.75E1,5E-1,3.2536006E-1,4.890095E-1,5E-1,4.791595E-3,8.35E1,1.195E2,7.95E1,2.651332E-1,2.023741E-1,8.35E1,1.075E2,4.75E1,5E-1,3.65E1,5E-1,1.75E1,3.85E2,2.45E1,5.872263E-1,2.3588797E-1,2.1163349E-1,4.85E1,6.3738894E-1,5E-1,2.6159042E-1,-3.511557E-1,8.25E1,6.05E1,8.45E1,9.05E1,1.265E2,6.05E1,8.45E1,3.4678268E-1,5E-1,7.15E1,3.35E1,5E-1,5E-1,9.65E1,2.875E2,-1.9601578E-1,-3.6297345E-1,1.6208467E-1,-1.7285697E-1,-5.9389174E-2,2.3544872E-1,-3.543408E-1,-1.9720091E-1,1.1213256E-1,2.4556746E-1,1.3585965E-1,-1.7483948E-1,6.8888515E-2,1.9044232E-1,-4.9278668E-1,2.970235E-1,-3.5892183E-1,-1.7167716E-1,-1.5006986E-1,1.2025634E-1,7.496168E-2,1.6000913E-1,2.4715512E-1,3.5560575E-1,1.7797872E-1,2.4983823E-1,2.6806507E-1,1.9864044E-1,-2.972759E-1,-3.3510354E-1,-3.3438596E-1,-9.471237E-2,-3.4602147E-1,-2.8405797E-1,-1.9961882E-1,8.76889E-2,-3.520249E-1,-2.0592482E-1,-3.2496837E-1,-8.843251E-2,-3.4415013E-1,-2.6442122E-1,-2.894664E-1,-1.4846383E-1,5.309089E-2,-2.55087E-1,9.442845E-2,-1.1030163E-1,3.7788134E-2,2.0655435E-1,2.1454984E-1,-2.7761105E-1,-2.9683676E-1,-3.3753428E-1,-3.542732E-2,2.683125E-1,-1.3529737E-1,-3.9155364E-1],"split_indices":[1,5,5,5,1,5,1,5,1,1,4,5,11,1,1,0,1,1,1,17,5,5,0,5,1,1,1,3,3,1,1,1,11,1,0,4,4,1,5,5,3,1,5,46,3,0,1,1,1,1,1,1,1,5,2,1,4,11,11,1,1,0,0,0,0,0,0,0,0,0,0,0,0,0,0,0,0,0,0,0,0,0,0,0,0,0,0,0,0,0,0,0,0,0,0,0,0,0,0,0,0,0,0,0,0,0,0,0,0,0,0,0,0,0,0,0,0,0,0],"split_type":[0,0,0,0,0,0,0,0,0,0,0,0,0,0,0,0,0,0,0,0,0,0,0,0,0,0,0,0,0,0,0,0,0,0,0,0,0,0,0,0,0,0,0,0,0,0,0,0,0,0,0,0,0,0,0,0,0,0,0,0,0,0,0,0,0,0,0,0,0,0,0,0,0,0,0,0,0,0,0,0,0,0,0,0,0,0,0,0,0,0,0,0,0,0,0,0,0,0,0,0,0,0,0,0,0,0,0,0,0,0,0,0,0,0,0,0,0,0,0],"sum_hessian":[1.1190769E5,2.9624426E4,8.228326E4,1.5381438E4,1.4242987E4,5.068823E4,3.159503E4,1.5954557E3,1.3785982E4,8.235747E3,6.00724E3,2.8805852E4,2.1882377E4,7.235131E3,2.4359898E4,1.0952721E3,5.0018362E2,1.2115165E4,1.670817E3,7.216759E3,1.0189887E3,3.4944097E3,2.5128303E3,8.520762E3,2.028509E4,1.2247401E4,9.634976E3,2.337844E3,4.897287E3,1.0756766E4,1.3603133E4,4.5240695E2,4.7776688E1,1.0580988E4,1.5341768E3,1.3083735E3,3.6244348E2,7.139114E3,7.764486E1,6.2431714E2,3.9467154E2,3.00629E3,4.8811978E2,1.4061305E3,1.1066997E3,7.0115894E3,1.5091724E3,4.6782056E3,1.5606884E4,5.606372E3,6.64103E3,3.0898228E3,6.5451533E3,1.8651118E3,4.7273224E2,1.970087E3,2.9272E3,3.872488E2,1.0369517E4,3.3142334E3,1.0288899E4,3.8218466E2,7.02223E1,2.0883884E1,2.6892803E1,8.883393E3,1.6975966E3,1.2633685E3,2.7080823E2,3.792559E2,9.291177E2,2.8605402E2,7.638948E1,4.8423364E3,2.2967776E3,7.64162E1,1.2286605E0,2.8154224E2,3.4277493E2,1.0332327E2,2.9134827E2,1.6306104E3,1.3756797E3,3.9311588E2,9.500391E1,1.2513031E3,1.5482747E2,6.266532E2,4.8004654E2,2.2829091E2,1.2808815E3,2.9896074E3,1.6885983E3,7.9180547E3,7.688829E3,4.540091E3,1.0662816E3,2.8650474E3,3.7759822E3,1.906972E3,1.1828506E3,5.288968E3,1.2561857E3,1.5479656E3,3.1714624E2,3.498713E2,1.22860916E2,1.0792655E3,8.9082153E2,2.4296242E2,2.6842375E3,1.3506075E2,2.5218805E2,2.0304978E3,8.33902E3,2.1216406E3,1.1925927E3,8.531652E3,1.7572467E3],"tree_param":{"num_deleted":"0","num_feature":"70","num_nodes":"119","size_leaf_vector":"0"}},{"base_weights":[-4.7138128E-1,-9.997031E-2,-7.880716E-1,-4.6999756E-1,1.3676141E-1,-1.0632532E0,-5.937053E-1,-2.2205724E-1,-7.629936E-1,4.2927645E-2,4.7055614E-1,-5.9549654E-1,-1.0745022E0,-3.3161413E-2,-7.7903473E-1,-3.6615637E-1,2.8926975E-1,-1.0619557E0,-3.769707E-1,3.742106E-1,-5.045892E-2,4.3643188E-1,9.3673736E-1,-9.015339E-1,7.1484023E-1,-1.0753748E0,6.9594055E-1,-4.6381783E-1,1.7803565E-1,-1.0878321E0,-5.318839E-1,-5.50107E-1,2.2504388E-1,-2.8705883E-1,5.0534195E-1,-1.0632277E0,2.2343714E0,-7.7071935E-1,2.3838982E-1,1.16011485E-1,8.093833E-1,-1.2803295E0,1.6771579E-3,2.4410418E-1,4.957336E-1,7.69106E-1,1.391187E0,-9.667417E-1,3.827799E-1,-9.970915E-1,8.417501E-1,-1.0987298E0,-1.025122E0,2.1533191E0,-9.293666E-1,-1.16172954E-1,-1.0290291E0,9.529145E-1,2.5639795E-3,-1.0894692E0,4.513013E0,-1.1487415E-1,-1.1323674E0,1.6841662E-1,-6.5226537E-1,5.016235E-1,-1.5280315E-1,-1.1028918E0,-1.0814285E-1,7.0137405E-1,3.321099E-1,-1.0736284E0,-8.398168E-1,-4.7051015E-1,-9.91687E-1,-8.896452E-2,1.062656E0,4.9387184E-1,-8.133519E-1,1.1114209E0,6.3991046E-1,-1.4204278E0,-4.7383763E-2,5.73179E-1,-8.480511E-2,3.169501E-1,-1.9005103E-1,3.9433175E-1,7.148001E-1,8.7217075E-1,6.378253E-1,-9.970542E-1,1.0280232E0,7.0689446E-1,-3.4105176E-1,1.1847659E0,2.7477995E-1,-1.0998884E0,-9.7218317E-1,-1.0493039E0,-7.389464E-1,-3.6336353E-1,5.444651E-1,-1.0623173E0,7.1162957E-1,1.1804564E0,-3.6669802E-2,-1.0102066E0,2.651611E-1,-1.1133541E0,-8.727578E-1,-5.166441E-1,3.106625E-1,-7.788124E-1,-1.1564376E0],"categories":[],"categories_nodes":[],"categories_segments":[],"categories_sizes":[],"default_left":[true,true,true,true,true,true,true,true,true,true,true,true,true,true,true,true,true,true,true,true,true,true,true,true,true,true,true,true,true,true,true,true,true,true,true,true,false,true,true,true,true,true,true,true,true,true,false,true,true,false,true,true,true,false,false,true,true,true,true,true,false,true,true,false,false,false,false,false,false,false,false,false,false,false,false,false,false,false,false,false,false,false,false,false,false,false,false,false,false,false,false,false,false,false,false,false,false,false,false,false,false,false,false,false,false,false,false,false,false,false,false,false,false,false,false],"id":5,"left_children":[1,3,5,7,9,11,13,15,17,19,21,23,25,27,29,31,33,35,37,39,41,43,45,47,49,51,53,55,57,59,61,63,65,67,69,71,-1,73,75,77,79,81,83,85,87,89,-1,91,93,-1,95,97,99,-1,-1,101,103,105,107,109,-1,111,113,-1,-1,-1,-1,-1,-1,-1,-1,-1,-1,-1,-1,-1,-1,-1,-1,-1,-1,-1,-1,-1,-1,-1,-1,-1,-1,-1,-1,-1,-1,-1,-1,-1,-1,-1,-1,-1,-1,-1,-1,-1,-1,-1,-1,-1,-1,-1,-1,-1,-1,-1,-1],"loss_changes":[1.1421115E4,3.91483E3,2.802627E3,1.2665205E3,8.536382E2,1.1351172E2,3.1911357E3,6.9609436E2,9.2189355E2,6.582285E2,9.472803E1,2.058466E2,3.3472656E1,6.943908E2,1.761293E3,8.015782E2,2.5882654E2,2.1256348E1,8.456904E2,5.2561035E2,1.0642666E3,6.3456665E1,2.9937744E1,3.5147614E1,2.2009846E1,2.372461E1,2.8157356E1,4.9348602E2,6.965128E2,9.900586E1,3.2112476E3,4.1270935E2,1.8291632E2,8.2653854E1,5.1086426E1,9.560059E0,0E0,1.4070935E2,3.6769696E2,1.0319987E3,8.846167E1,1.1652722E2,7.8708154E2,4.167074E1,9.4341675E1,3.497223E0,0E0,2.4938599E1,5.116584E0,0E0,1.742266E1,1.046875E0,4.581836E1,0E0,0E0,2.5438411E2,5.6181885E1,2.130169E2,1.1113473E3,5.2134766E1,0E0,1.2943323E3,4.3828125E1,0E0,0E0,0E0,0E0,0E0,0E0,0E0,0E0,0E0,0E0,0E0,0E0,0E0,0E0,0E0,0E0,0E0,0E0,0E0,0E0,0E0,0E0,0E0,0E0,0E0,0E0,0E0,0E0,0E0,0E0,0E0,0E0,0E0,0E0,0E0,0E0,0E0,0E0,0E0,0E0,0E0,0E0,0E0,0E0,0E0,0E0,0E0,0E0,0E0,0E0,0E0,0E0],"parents":[2147483647,0,0,1,1,2,2,3,3,4,4,5,5,6,6,7,7,8,8,9,9,10,10,11,11,12,12,13,13,14,14,15,15,16,16,17,17,18,18,19,19,20,20,21,21,22,22,23,23,24,24,25,25,26,26,27,27,28,28,29,29,30,30,31,31,32,32,33,33,34,34,35,35,37,37,38,38,39,39,40,40,41,41,42,42,43,43,44,44,45,45,47,47,48,48,50,50,51,51,52,52,55,55,56,56,57,57,58,58,59,59,61,61,62,62],"right_children":[2,4,6,8,10,12,14,16,18,20,22,24,26,28,30,32,34,36,38,40,42,44,46,48,50,52,54,56,58,60,62,64,66,68,70,72,-1,74,76,78,80,82,84,86,88,90,-1,92,94,-1,96,98,100,-1,-1,102,104,106,108,110,-1,112,114,-1,-1,-1,-1,-1,-1,-1,-1,-1,-1,-1,-1,-1,-1,-1,-1,-1,-1,-1,-1,-1,-1,-1,-1,-1,-1,-1,-1,-1,-1,-1,-1,-1,-1,-1,-1,-1,-1,-1,-1,-1,-1,-1,-1,-1,-1,-1,-1,-1,-1,-1,-1],"split_conditions":[8.25E1,1.5821566E-1,8.45E1,5.95E1,4.2197692E-1,8.35E1,1.185E2,5E-1,6.05E1,2.35E1,6.2033665E-1,5E-1,7.577392E-1,9.05E1,1.265E2,7.6E1,8.8621154E-2,9E-1,5E-1,1.35E1,2.45E1,2.85E1,9.3333334E-1,3.4681714E-1,2.1051712E-2,2.329932E-1,5E-1,8.95E1,9.55E1,9E-1,2.875E2,1.15E1,3.55E1,1.2300247E-2,3.55E1,2.3615935E-1,6.7031145E-1,7.15E1,7.25E1,1.15E1,1.8983269E-1,1.647E3,3.55E1,5E-1,5E-1,3.79E2,4.173561E-1,5E-1,5E-1,-2.9912746E-1,5E-1,3.23595E-1,5E-1,6.4599574E-1,-2.7881E-1,8.75E1,5.0160253E-1,5E-1,9.65E1,1.205E2,1.3539039E0,1.7880537E-1,2.985E2,5.0524987E-2,-1.9567962E-1,1.5048707E-1,-4.584095E-2,-3.3086756E-1,-3.2442857E-2,2.1041222E-1,9.963297E-2,-3.2208854E-1,-2.5194505E-1,-1.4115305E-1,-2.9750612E-1,-2.6689358E-2,3.187968E-1,1.4816156E-1,-2.4400559E-1,3.3342627E-1,1.9197315E-1,-4.2612836E-1,-1.4215129E-2,1.7195371E-1,-2.5441533E-2,9.508504E-2,-5.701531E-2,1.1829953E-1,2.1444005E-1,2.6165125E-1,1.913476E-1,-2.9911628E-1,3.0840698E-1,2.1206835E-1,-1.0231553E-1,3.554298E-1,8.243398E-2,-3.2996655E-1,-2.9165497E-1,-3.1479117E-1,-2.2168392E-1,-1.09009065E-1,1.6333954E-1,-3.186952E-1,2.1348888E-1,3.5413694E-1,-1.1000941E-2,-3.03062E-1,7.954833E-2,-3.3400625E-1,-2.6182735E-1,-1.5499324E-1,9.3198754E-2,-2.3364373E-1,-3.469313E-1],"split_indices":[1,3,1,1,5,1,1,12,1,1,5,12,5,1,1,4,5,5,12,1,1,1,5,5,5,5,11,1,1,5,1,1,1,5,1,5,0,1,1,1,5,4,1,7,0,4,0,15,2,0,2,3,12,0,0,1,5,11,1,1,0,5,1,0,0,0,0,0,0,0,0,0,0,0,0,0,0,0,0,0,0,0,0,0,0,0,0,0,0,0,0,0,0,0,0,0,0,0,0,0,0,0,0,0,0,0,0,0,0,0,0,0,0,0,0],"split_type":[0,0,0,0,0,0,0,0,0,0,0,0,0,0,0,0,0,0,0,0,0,0,0,0,0,0,0,0,0,0,0,0,0,0,0,0,0,0,0,0,0,0,0,0,0,0,0,0,0,0,0,0,0,0,0,0,0,0,0,0,0,0,0,0,0,0,0,0,0,0,0,0,0,0,0,0,0,0,0,0,0,0,0,0,0,0,0,0,0,0,0,0,0,0,0,0,0,0,0,0,0,0,0,0,0,0,0,0,0,0,0,0,0,0,0],"sum_hessian":[9.709965E4,4.4689543E4,5.24101E4,1.7435588E4,2.7253955E4,2.1692969E4,3.0717135E4,9.44487E3,7.9907183E3,2.1274549E4,5.9794067E3,5.107108E2,2.1182258E4,7.6326724E3,2.308446E4,7.3685835E3,2.0762861E3,4.5021772E3,3.4885408E3,4.6776987E3,1.659685E4,5.5733745E3,4.0603226E2,4.1426788E2,9.644289E1,2.1172217E4,1.0042457E1,2.5110798E3,5.121593E3,1.02608545E4,1.2823606E4,5.620002E3,1.7485815E3,5.66073E2,1.5102131E3,4.501118E3,1.0594012E0,2.1271782E3,1.3613627E3,2.9366033E3,1.7410956E3,6.739953E2,1.59228545E4,1.314687E3,4.2586875E3,2.9858615E2,1.0744611E2,3.944861E2,1.9781775E1,6.1829E0,9.025999E1,1.4440235E4,6.731981E3,5.1234756E0,4.9189816E0,1.5555266E3,9.555532E2,9.4482715E2,4.1767656E3,1.0258662E4,2.1929872E0,7.568679E3,5.2549277E3,6.9949634E2,4.920506E3,1.00939124E3,7.391903E2,1.00885284E2,4.6518774E2,7.0705255E2,8.0316064E2,4.2972573E3,2.0386067E2,9.0320386E2,1.2239742E3,9.750265E2,3.863362E2,2.0880947E3,8.4850854E2,6.2379614E2,1.1172993E3,6.0508777E2,6.8907555E1,2.0920837E3,1.38307705E4,1.1260239E3,1.8866312E2,2.9130776E3,1.3456096E3,1.641069E2,1.3447923E2,3.890739E2,5.4122124E0,1.3679721E1,6.102054E0,5.555791E1,3.4702072E1,1.4301605E4,1.3862921E2,6.204994E3,5.269869E2,1.1323033E3,4.232233E2,9.3800464E2,1.7548573E1,7.680348E2,1.7679236E2,8.5940625E2,3.3173594E3,9.236518E3,1.02214465E3,3.892945E3,3.6757341E3,3.3708072E2,4.9178467E3],"tree_param":{"num_deleted":"0","num_feature":"70","num_nodes":"115","size_leaf_vector":"0"}},{"base_weights":[-3.9366877E-1,-7.541038E-2,-6.974328E-1,-3.9280832E-1,1.0014781E-1,-1.0026152E0,-5.026945E-1,-1.7216247E-1,-6.8604046E-1,1.0437668E-2,3.6490735E-1,-4.6319813E-1,-1.0282377E0,-2.3461895E-2,-6.833167E-1,-1.0801314E0,-9.737737E-2,-1.0127811E0,-3.1827685E-1,-6.1923187E-2,2.9359552E-1,3.7754345E-1,-1.3556491E0,5.351294E-1,-9.083524E-1,-1.0589919E0,-9.634678E-1,-2.015838E-1,4.2263946E-1,-1.0239849E0,-4.4197708E-1,-1.0914221E0,-7.5757873E-1,-4.8168856E-1,4.514683E-2,-1.0208297E0,-3.746865E-1,6.653999E-2,-7.127011E-1,8.576405E-2,-8.346216E-1,5.2836317E-1,-4.3906495E-3,3.0732927E-1,6.7633635E-1,-1.22912355E-1,-1.6720793E0,6.49246E-1,-1.3227937E0,-4.2266867E-1,-1.0564886E0,-1.0291417E0,-1.069531E0,-9.9510014E-1,-6.2183505E-1,-2.4468273E-1,2.2424908E0,6.247157E-1,-9.383613E-1,-1.0545019E0,-7.6172745E-1,-8.906239E-2,-1.0758781E0,-8.191145E-1,1.6242853E-1,2.7782986E-1,-1.2957745E0,8.747009E-1,-1.13694414E-1,-1.0472654E0,-9.4638854E-1,-4.945478E-1,2.2681217E0,-1.12312E0,1.8424915E-1,-3.7457788E-1,-9.455155E-1,7.2146314E-3,5.0150687E-1,-9.3176734E-1,-4.9134287E-1,3.0898824E-1,9.066303E-1,-9.213074E-1,3.6128002E-1,3.5113603E-1,-1.6172926E-1,1.3704684E0,5.6770986E-1,5.4705226E-1,-1.237722E0,-2.0397136E0,-4.8408777E-1,-9.8337483E-1,7.01086E-1,-1.3776852E0,-3.282046E-1,-5.546646E-1,9.46587E-1,-1.0894467E0,1.8608394E0,-1.0345489E0,-7.461823E-1,-9.9726886E-1,6.248499E-1,-6.439192E-1,3.4361312E0,-2.9582843E-1,1.9053004E0,-7.955413E-1,2.7608335E0,7.0937055E-1,-7.4531186E-1,-1.0022289E0,2.219552E0,-5.4424554E-1,-1.0711013E0,-7.8000623E-1,2.0486896E0,-1.8930006E-1,1.159537E0,-6.7304707E-1,-1.1088735E0],"categories":[],"categories_nodes":[],"categories_segments":[],"categories_sizes":[],"default_left":[true,true,true,true,true,true,true,true,true,true,true,true,true,true,true,true,true,true,true,true,true,true,true,true,true,true,true,true,true,true,true,false,true,true,true,true,true,true,true,true,true,true,true,true,true,true,true,true,true,true,true,true,false,true,true,true,true,true,true,true,true,true,true,false,false,false,false,false,false,false,false,false,false,false,false,false,false,false,false,false,false,false,false,false,false,false,false,false,false,false,false,false,false,false,false,false,false,false,false,false,false,false,false,false,false,false,false,false,false,false,false,false,false,false,false,false,false,false,false,false,false,false,false],"id":6,"left_children":[1,3,5,7,9,11,13,15,17,19,21,23,25,27,29,31,33,35,37,39,41,43,45,47,49,51,53,55,57,59,61,-1,63,65,67,69,71,73,75,77,79,81,83,85,87,89,91,93,95,97,99,101,-1,103,105,107,109,111,113,115,117,119,121,-1,-1,-1,-1,-1,-1,-1,-1,-1,-1,-1,-1,-1,-1,-1,-1,-1,-1,-1,-1,-1,-1,-1,-1,-1,-1,-1,-1,-1,-1,-1,-1,-1,-1,-1,-1,-1,-1,-1,-1,-1,-1,-1,-1,-1,-1,-1,-1,-1,-1,-1,-1,-1,-1,-1,-1,-1,-1,-1,-1],"loss_changes":[8.278642E3,2.3303445E3,2.6034258E3,9.635193E2,6.3956824E2,2.354043E2,2.3153877E3,5.7707605E2,7.680845E2,4.1213782E2,1.486745E2,3.4522433E2,3.143164E1,5.819797E2,1.5967744E3,1.5285034E0,4.302359E2,1.700586E1,4.5689966E2,1.8283087E3,2.8641028E2,1.4173853E2,1.9260223E1,5.17125E1,3.8179688E1,2.3720703E0,5.6183594E1,5.5189453E2,5.7537915E2,6.3663086E1,2.5442002E3,0E0,1.5564375E0,1.3142313E3,7.5518896E2,5.5876465E0,1.4981619E1,2.1368024E2,1.1666315E2,4.392514E2,8.5273315E1,1.8974341E2,6.0556384E2,1.1266705E2,9.623193E1,9.096227E0,1.6320953E1,1.9871498E1,3.2356453E-1,2.3504477E1,4.151825E1,3.6748047E0,0E0,1.7519043E1,4.2370346E1,5.662448E2,1.4517911E2,2.1165411E2,5.6799637E1,6.050879E1,4.4914246E1,9.1471313E2,5.3313477E1,0E0,0E0,0E0,0E0,0E0,0E0,0E0,0E0,0E0,0E0,0E0,0E0,0E0,0E0,0E0,0E0,0E0,0E0,0E0,0E0,0E0,0E0,0E0,0E0,0E0,0E0,0E0,0E0,0E0,0E0,0E0,0E0,0E0,0E0,0E0,0E0,0E0,0E0,0E0,0E0,0E0,0E0,0E0,0E0,0E0,0E0,0E0,0E0,0E0,0E0,0E0,0E0,0E0,0E0,0E0,0E0,0E0,0E0,0E0,0E0],"parents":[2147483647,0,0,1,1,2,2,3,3,4,4,5,5,6,6,7,7,8,8,9,9,10,10,11,11,12,12,13,13,14,14,15,15,16,16,17,17,18,18,19,19,20,20,21,21,22,22,23,23,24,24,25,25,26,26,27,27,28,28,29,29,30,30,32,32,33,33,34,34,35,35,36,36,37,37,38,38,39,39,40,40,41,41,42,42,43,43,44,44,45,45,46,46,47,47,48,48,49,49,50,50,51,51,53,53,54,54,55,55,56,56,57,57,58,58,59,59,60,60,61,61,62,62],"right_children":[2,4,6,8,10,12,14,16,18,20,22,24,26,28,30,32,34,36,38,40,42,44,46,48,50,52,54,56,58,60,62,-1,64,66,68,70,72,74,76,78,80,82,84,86,88,90,92,94,96,98,100,102,-1,104,106,108,110,112,114,116,118,120,122,-1,-1,-1,-1,-1,-1,-1,-1,-1,-1,-1,-1,-1,-1,-1,-1,-1,-1,-1,-1,-1,-1,-1,-1,-1,-1,-1,-1,-1,-1,-1,-1,-1,-1,-1,-1,-1,-1,-1,-1,-1,-1,-1,-1,-1,-1,-1,-1,-1,-1,-1,-1,-1,-1,-1,-1,-1,-1,-1,-1],"split_conditions":[8.15E1,1.4974228E-1,8.45E1,5.95E1,1.8685E3,8.35E1,1.175E2,1.3043725E-2,6.05E1,6.05E1,7.75E1,5E-1,2.329932E-1,2.651332E-1,1.265E2,5E-1,1.25E1,3.3184522E-1,5E-1,5.95E1,7.15E1,6.05E1,2.6159042E-1,5E-1,5E-1,5E-1,5E-1,5E-1,5E-1,1.205E2,2.875E2,-3.2742664E-1,5E-1,1.15E1,2.35E1,1.23499505E-1,7.75E1,7.874504E-3,7.05E1,4.85E1,5E-1,5E-1,7.25E1,5.95E1,2.872267E-1,2.496E3,5E-1,5E-1,5E-1,3.3626193E-1,5E-1,3.23595E-1,-3.208593E-1,5E-1,5E-1,5E-1,4.0539905E-2,5E-1,5E-1,1.195E2,6.263851E-1,4.3758377E-1,2.995E2,-2.4573436E-1,4.872856E-2,8.334896E-2,-3.8873234E-1,2.6241028E-1,-3.4108326E-2,-3.1417963E-1,-2.8391656E-1,-1.4836435E-1,6.8043655E-1,-3.36936E-1,5.5274747E-2,-1.1237337E-1,-2.8365466E-1,2.1643895E-3,1.5045206E-1,-2.7953023E-1,-1.4740287E-1,9.269647E-2,2.719891E-1,-2.7639222E-1,1.0838401E-1,1.05340816E-1,-4.851878E-2,4.1114053E-1,1.7031297E-1,1.6411568E-1,-3.713166E-1,-6.119141E-1,-1.4522633E-1,-2.9501247E-1,2.103258E-1,-4.1330558E-1,-9.846138E-2,-1.6639939E-1,2.839761E-1,-3.2683402E-1,5.5825186E-1,-3.1036466E-1,-2.238547E-1,-2.9918066E-1,1.8745498E-1,-1.9317578E-1,1.0308394E0,-8.874853E-2,5.715901E-1,-2.3866239E-1,8.282501E-1,2.1281117E-1,-2.2359356E-1,-3.0066866E-1,6.6586566E-1,-1.6327366E-1,-3.213304E-1,-2.3400187E-1,6.146069E-1,-5.679002E-2,3.478611E-1,-2.0191413E-1,-3.3266205E-1],"split_indices":[1,3,1,1,4,1,1,5,1,1,1,11,5,3,1,4,1,5,11,1,1,1,3,0,0,11,12,66,11,1,1,0,32,1,1,5,4,5,1,1,0,0,1,1,5,4,54,4,33,5,65,3,0,57,65,65,5,52,57,1,5,5,1,0,0,0,0,0,0,0,0,0,0,0,0,0,0,0,0,0,0,0,0,0,0,0,0,0,0,0,0,0,0,0,0,0,0,0,0,0,0,0,0,0,0,0,0,0,0,0,0,0,0,0,0,0,0,0,0,0,0,0,0],"split_type":[0,0,0,0,0,0,0,0,0,0,0,0,0,0,0,0,0,0,0,0,0,0,0,0,0,0,0,0,0,0,0,0,0,0,0,0,0,0,0,0,0,0,0,0,0,0,0,0,0,0,0,0,0,0,0,0,0,0,0,0,0,0,0,0,0,0,0,0,0,0,0,0,0,0,0,0,0,0,0,0,0,0,0,0,0,0,0,0,0,0,0,0,0,0,0,0,0,0,0,0,0,0,0,0,0,0,0,0,0,0,0,0,0,0,0,0,0,0,0,0,0,0,0],"sum_hessian":[8.563288E4,4.1819344E4,4.3813543E4,1.4892829E4,2.6926516E4,1.706544E4,2.6748104E4,8.499142E3,6.393688E3,2.0112656E4,6.813859E3,7.7472156E2,1.6290718E4,7.3220728E3,1.9426031E4,6.457402E2,7.853401E3,3.384746E3,3.0089417E3,1.6019629E4,4.0930273E3,6.764956E3,4.890256E1,2.3885347E2,5.3586804E2,1.103548E4,5.2552373E3,5.2331133E3,2.0889595E3,8.0539946E3,1.1372035E4,6.215979E2,2.4142284E1,2.1239282E3,5.729473E3,3.3419922E3,4.275385E1,1.5234404E3,1.4855012E3,1.3449828E4,2.5698008E3,2.288928E3,1.8040995E3,5.4793716E3,1.2855846E3,1.0272351E1,3.863021E1,2.2564458E2,1.3208891E1,1.2614353E2,4.0972455E2,2.9053018E3,8.1301787E3,4.8081313E3,4.4710593E2,5.143316E3,8.97976E1,1.8193677E3,2.695918E2,7.2117905E3,8.4220404E2,7.3057896E3,4.0662458E3,2.2731524E1,1.4107599E0,1.0991304E3,1.0247979E3,9.2003754E2,4.8094355E3,2.456549E3,8.8544305E2,4.1676533E1,1.0773171E0,1.3639415E2,1.3870464E3,6.06815E2,8.786863E2,1.1313333E4,2.1364956E3,2.0016359E3,5.68165E2,1.449887E3,8.39041E2,5.1392255E2,1.2901769E3,5.011577E3,4.6779446E2,1.7238893E2,1.1131956E3,6.7344503E0,3.537901E0,2.8953388E1,9.676821E0,6.391291E0,2.1925328E2,1.2152986E1,1.0559056E0,1.1559511E2,1.0548427E1,4.05767E2,3.957529E0,2.8482178E3,5.7083942E1,4.802087E3,6.0445E0,4.4552264E2,1.5832884E0,5.0246475E3,1.18668335E2,1.3010084E1,7.678751E1,1.7139441E3,1.054235E2,2.649166E2,4.6752005E0,2.2828268E2,6.983508E3,8.3747955E2,4.724456E0,6.7636514E3,5.421382E2,3.094648E2,3.756781E3],"tree_param":{"num_deleted":"0","num_feature":"70","num_nodes":"123","size_leaf_vector":"0"}},{"base_weights":[-3.27435E-1,-6.3641585E-2,-6.154002E-1,-6.4290655E-1,4.6113655E-3,-9.7240514E-1,-4.203329E-1,-1.0737808E0,-4.4494715E-1,-1.0726792E-1,1.951556E-1,-4.627855E-1,-9.876162E-1,5.9486E-2,-5.7026476E-1,-2.7553907E-1,-6.694747E-1,1.7173605E-1,-2.5479242E-1,1.6504937E-1,6.5773755E-1,-2.304367E-3,-9.4381016E-1,-1.0272695E0,-9.0632147E-1,-1.8797417E-1,6.3452035E-1,-8.899483E-1,-3.8294864E-1,-5.285643E-1,-7.782699E-2,-7.915842E-1,4.091906E-1,1.1476328E-2,6.7472315E-1,-1.1257457E0,-1.2201025E-1,-1.6234352E-1,2.1000887E-1,5.360407E-1,1.332413E0,2.5375476E-1,-4.4715643E-1,-9.818721E-1,6.621381E-1,-9.8383063E-1,-1.042897E0,-6.5859914E-1,-9.6880513E-1,-3.8914874E-2,-8.2108134E-1,8.272463E-1,-1.9348252E-1,-1.0243435E0,-7.827937E-1,-7.561564E-1,-1.2697956E-1,-3.4462285E-1,-7.6708996E-1,-1.7293921E-1,6.5849507E-1,-9.9788773E-1,-4.8277503E-1,1.3159584E0,-4.6959683E-1,1.8023969E-1,-1.036392E0,8.944663E-1,4.906235E-1,-1.175758E0,-5.0451285E-1,5.961863E-1,-2.555383E-1,8.290067E-2,-1.2513018E0,1.1874388E-1,3.4687537E-1,1.0198072E0,3.3403912E-1,5.612976E-1,-2.2815712E-1,-8.214235E-1,9.16107E-2,-1.0016663E0,-1.1228737E-1,-8.2743293E-1,2.0458033E0,-9.9071E-1,-6.5287936E-1,-6.805297E-1,1.1958858E0,-9.784532E-1,-8.5963136E-1,-3.285171E-1,6.8149376E-1,-8.850191E-1,-2.1625172E-1,-1.1404692E0,8.706908E-1,-5.740008E-1,1.5624475E0,-1.0750537E0,-9.507518E-1,-9.436276E-1,-6.3970166E-1,-2.659041E-1,-9.4568694E-1,1.4262296E-1,-1.0145934E0],"categories":[],"categories_nodes":[],"categories_segments":[],"categories_sizes":[],"default_left":[true,true,true,true,true,true,true,false,true,true,true,true,true,true,true,true,true,true,true,true,true,true,true,true,true,true,true,true,true,true,true,true,true,true,true,true,true,true,true,true,false,true,true,true,true,true,false,true,true,true,true,true,true,true,true,true,true,false,false,false,false,false,false,false,false,false,false,false,false,false,false,false,false,false,false,false,false,false,false,false,false,false,false,false,false,false,false,false,false,false,false,false,false,false,false,false,false,false,false,false,false,false,false,false,false,false,false,false,false],"id":7,"left_children":[1,3,5,7,9,11,13,-1,15,17,19,21,23,25,27,29,31,33,35,37,39,41,43,45,47,49,51,53,55,57,59,61,63,65,67,69,71,73,75,77,-1,79,81,83,85,87,-1,89,91,93,95,97,99,101,103,105,107,-1,-1,-1,-1,-1,-1,-1,-1,-1,-1,-1,-1,-1,-1,-1,-1,-1,-1,-1,-1,-1,-1,-1,-1,-1,-1,-1,-1,-1,-1,-1,-1,-1,-1,-1,-1,-1,-1,-1,-1,-1,-1,-1,-1,-1,-1,-1,-1,-1,-1,-1,-1],"loss_changes":[5.7864565E3,1.5718617E3,2.535793E3,3.5696948E2,7.5824554E2,9.9288086E1,1.6943994E3,0E0,1.0910089E2,9.224444E2,1.8314111E2,8.30198E1,3.934375E1,7.9816986E2,1.0742485E3,8.196569E1,1.6297498E2,6.248425E2,1.6951917E3,1.8190051E2,6.527536E1,2.2040588E1,1.1855316E1,4.6689453E0,6.289453E1,3.7006354E2,2.6945886E2,9.4666504E1,1.0810022E3,3.1276474E1,6.464222E1,7.021124E1,1.0120975E2,1.0399546E3,7.533307E1,5.965503E1,1.2201223E3,3.986724E2,1.356637E2,6.636101E1,0E0,1.8329826E1,1.4328562E1,2.9767456E0,1.16710415E1,4.4472656E0,0E0,3.4565186E1,2.609375E0,6.627149E2,2.870871E1,1.1803473E2,2.1433801E2,9.94043E0,8.437988E1,4.2752954E2,1.6068295E3,0E0,0E0,0E0,0E0,0E0,0E0,0E0,0E0,0E0,0E0,0E0,0E0,0E0,0E0,0E0,0E0,0E0,0E0,0E0,0E0,0E0,0E0,0E0,0E0,0E0,0E0,0E0,0E0,0E0,0E0,0E0,0E0,0E0,0E0,0E0,0E0,0E0,0E0,0E0,0E0,0E0,0E0,0E0,0E0,0E0,0E0,0E0,0E0,0E0,0E0,0E0,0E0],"parents":[2147483647,0,0,1,1,2,2,3,3,4,4,5,5,6,6,8,8,9,9,10,10,11,11,12,12,13,13,14,14,15,15,16,16,17,17,18,18,19,19,20,20,21,21,22,22,23,23,24,24,25,25,26,26,27,27,28,28,29,29,30,30,31,31,32,32,33,33,34,34,35,35,36,36,37,37,38,38,39,39,41,41,42,42,43,43,44,44,45,45,47,47,48,48,49,49,50,50,51,51,52,52,53,53,54,54,55,55,56,56],"right_children":[2,4,6,8,10,12,14,-1,16,18,20,22,24,26,28,30,32,34,36,38,40,42,44,46,48,50,52,54,56,58,60,62,64,66,68,70,72,74,76,78,-1,80,82,84,86,88,-1,90,92,94,96,98,100,102,104,106,108,-1,-1,-1,-1,-1,-1,-1,-1,-1,-1,-1,-1,-1,-1,-1,-1,-1,-1,-1,-1,-1,-1,-1,-1,-1,-1,-1,-1,-1,-1,-1,-1,-1,-1,-1,-1,-1,-1,-1,-1,-1,-1,-1,-1,-1,-1,-1,-1,-1,-1,-1,-1],"split_conditions":[8.25E1,6.274606E-2,8.45E1,4.791595E-3,2.6545697E-1,8.35E1,1.075E2,-3.2213426E-1,5.95E1,3.55E1,5.767E-1,5E-1,2.329932E-1,9.65E1,1.0942122E-1,3.5E0,7.25E1,2.45E1,3.65E1,1.25E1,9.3333334E-1,5E-1,5E-1,5E-1,5E-1,9.55E1,5E-1,4.4010043E-2,1.265E2,5E-1,4.85E1,6.05E1,5E-1,2.35E1,1.6701978E-1,2.3195273E-1,4.75E1,1.15E1,1.956E3,2.35E1,3.9972392E-1,5E-1,1.6248956E-1,3.6762276E-1,6.2E1,3.23595E-1,-3.128691E-1,6.3738894E-1,4.8959637E-1,9.05E1,3.9514652E-1,6.827211E-3,5E-1,6.9567114E-3,1.265E2,1.195E2,2.875E2,-1.0338686E-1,-2.3012699E-1,-5.1881764E-2,1.9754852E-1,-2.9936633E-1,-1.4483252E-1,3.9478752E-1,-1.4087905E-1,5.407191E-2,-3.1091762E-1,2.683399E-1,1.4718705E-1,-3.527274E-1,-1.5135387E-1,1.788559E-1,-7.66615E-2,2.4870204E-2,-3.7539056E-1,3.5623167E-2,1.0406262E-1,3.0594218E-1,1.0021174E-1,1.6838929E-1,-6.8447135E-2,-2.4642704E-1,2.7483212E-2,-3.0049992E-1,-3.3686213E-2,-2.4822989E-1,6.1374104E-1,-2.9721302E-1,-1.9586381E-1,-2.0415892E-1,3.5876575E-1,-2.9353598E-1,-2.5788942E-1,-9.855514E-2,2.0444813E-1,-2.6550576E-1,-6.487552E-2,-3.4214076E-1,2.6120725E-1,-1.7220023E-1,4.687343E-1,-3.225161E-1,-2.8522554E-1,-2.830883E-1,-1.919105E-1,-7.9771236E-2,-2.837061E-1,4.278689E-2,-3.0437803E-1],"split_indices":[1,5,1,5,5,1,1,0,1,1,5,0,5,1,5,4,1,1,1,1,5,11,65,11,11,1,11,5,1,0,1,1,11,1,3,5,1,1,4,1,0,2,5,5,4,3,0,5,5,1,5,5,0,5,1,1,1,0,0,0,0,0,0,0,0,0,0,0,0,0,0,0,0,0,0,0,0,0,0,0,0,0,0,0,0,0,0,0,0,0,0,0,0,0,0,0,0,0,0,0,0,0,0,0,0,0,0,0,0],"split_type":[0,0,0,0,0,0,0,0,0,0,0,0,0,0,0,0,0,0,0,0,0,0,0,0,0,0,0,0,0,0,0,0,0,0,0,0,0,0,0,0,0,0,0,0,0,0,0,0,0,0,0,0,0,0,0,0,0,0,0,0,0,0,0,0,0,0,0,0,0,0,0,0,0,0,0,0,0,0,0,0,0,0,0,0,0,0,0,0,0,0,0,0,0,0,0,0,0,0,0,0,0,0,0,0,0,0,0,0,0],"sum_hessian":[7.617387E4,3.9756105E4,3.641776E4,4.1896865E3,3.556642E4,1.2866316E4,2.3551445E4,1.3175378E3,2.8721484E3,2.2409168E4,1.3157252E4,3.7381232E2,1.2492504E4,5.607301E3,1.7944145E4,1.6382793E3,1.2338691E3,7.7506597E3,1.4658509E4,1.2354538E4,8.027138E2,1.9149777E2,1.8231454E2,8.388964E3,4.1035405E3,3.9207285E3,1.6865724E3,6.6282583E3,1.1315887E4,7.1788324E2,9.203961E2,1.1086333E3,1.252358E2,5.8786504E3,1.8720092E3,1.9381558E3,1.2720354E4,1.4914274E3,1.0863111E4,6.815682E2,1.21145584E2,1.2181184E2,6.968594E1,1.7847324E2,3.8413138E0,2.2364307E3,6.1525327E3,8.288861E2,3.2746543E3,3.1744053E3,7.4632324E2,1.3681278E3,3.1844455E2,2.936584E3,3.6916743E3,4.602866E3,6.7130205E3,4.066985E2,3.1118478E2,8.1578467E2,1.04611435E2,6.63286E2,4.4534732E2,6.139182E1,6.3843983E1,5.0639146E3,8.1473566E2,8.5163293E2,1.0203762E3,1.7929236E3,1.4523218E2,1.9936743E3,1.0726679E4,1.2180371E3,2.7339017E2,6.5183965E3,4.3447144E3,1.9957193E2,4.8199628E2,7.425782E1,4.7554016E1,4.0811E1,2.887494E1,1.7435257E2,4.1206584E0,2.0434535E0,1.7978601E0,2.1889363E3,4.7494473E1,8.1982416E2,9.061945E0,3.001444E3,2.7321014E2,2.2645903E3,9.09815E2,6.7455176E2,7.177148E1,2.9008411E1,1.3391195E3,2.622803E2,5.6164257E1,1.7305176E3,1.2060663E3,1.7354512E3,1.9562231E3,1.2839968E3,3.3188691E3,5.149698E3,1.5633225E3],"tree_param":{"num_deleted":"0","num_feature":"70","num_nodes":"109","size_leaf_vector":"0"}},{"base_weights":[-2.673595E-1,-4.779326E-2,-5.323499E-1,-8.392282E-1,-1.1578526E-2,-9.122728E-1,-3.4781563E-1,-1.0526307E0,-5.17618E-1,-2.1426536E-1,7.510056E-2,-3.4547117E-1,-9.4844514E-1,-2.625417E-1,-1.0489994E0,-3.0870506E-1,-6.671627E-1,-5.412928E-2,-4.7899753E-1,8.3751746E-2,-1.3595964E0,2.0531501E-1,-9.553641E-1,-9.9953604E-1,-8.4732467E-1,-9.2931175E-1,-1.7979394E-1,-1.0498688E0,1.7022112E-1,-4.713652E-1,9.055092E-1,-7.8438354E-1,-2.289957E-1,-4.030325E-1,6.963655E-2,-9.2988145E-1,-1.20678596E-1,2.9750112E-2,2.9280722E-1,-1.3790214E0,2.6924407E-1,4.3606666E-1,-2.616896E-1,-9.9544203E-1,8.220644E-1,-9.4006115E-1,-1.0214133E0,-8.9659625E-1,-4.0709892E-1,-1.0736634E0,-6.797565E-1,-8.9187905E-2,-6.5187055E-1,-6.8101925E-1,-1.0519174E0,-2.6230976E-1,-1.0372195E0,7.430063E-1,2.6929743E0,-5.3791714E-1,-8.879617E-1,8.8003236E-1,-5.1477695E-1,1.6578746E-1,-1.0989641E0,6.1902463E-1,-4.1095097E-2,-9.428304E-1,-3.2012397E-1,1.9363672E-1,-4.7858918E-1,1.1641422E-1,-5.9115E-1,4.8305422E-1,5.7587985E-2,-3.1908306E-1,-1.3936952E0,7.487992E-1,1.8229184E-1,-5.4567045E-1,1.5957114E-1,-1.0089802E0,1.3298548E0,-7.711717E-1,1.5768338E0,-9.631286E-1,-7.8757685E-1,-1.0330175E0,-9.970508E-1,-9.000164E-1,6.957136E-1,-5.757803E-1,4.571384E-1,-1.1374984E0,-1.0539609E0,-1.2769897E-1,-8.470818E-1,-2.5969929E-1,1.6793607E-1,-7.57293E-1,1.3151869E-1,-8.817598E-1,-7.848092E-2,-1.0523512E0,-8.934893E-2],"categories":[],"categories_nodes":[],"categories_segments":[],"categories_sizes":[],"default_left":[true,true,true,true,true,true,true,false,true,true,true,true,true,true,true,true,true,true,true,true,true,true,true,true,true,true,true,true,false,true,true,true,true,true,true,true,true,true,true,true,false,true,true,true,true,true,true,true,true,true,true,true,true,true,true,false,false,false,false,false,false,false,false,false,false,false,false,false,false,false,false,false,false,false,false,false,false,false,false,false,false,false,false,false,false,false,false,false,false,false,false,false,false,false,false,false,false,false,false,false,false,false,false,false,false],"id":8,"left_children":[1,3,5,7,9,11,13,-1,15,17,19,21,23,25,27,29,31,33,35,37,39,41,43,45,47,49,51,53,-1,55,57,59,61,63,65,67,69,71,73,75,-1,77,79,81,83,85,87,89,91,93,95,97,99,101,103,-1,-1,-1,-1,-1,-1,-1,-1,-1,-1,-1,-1,-1,-1,-1,-1,-1,-1,-1,-1,-1,-1,-1,-1,-1,-1,-1,-1,-1,-1,-1,-1,-1,-1,-1,-1,-1,-1,-1,-1,-1,-1,-1,-1,-1,-1,-1,-1,-1,-1],"loss_changes":[4.0054893E3,1.0790897E3,2.1867139E3,1.1251941E2,6.32547E2,2.0875098E2,1.255259E3,0E0,2.0384506E1,4.5718347E2,3.1313104E2,2.0622684E2,4.867383E1,1.0328324E3,2.592041E0,5.5099373E1,1.950499E1,2.902634E2,6.5659985E2,2.830044E2,5.1559143E0,3.4932648E1,2.1563995E1,7.3183594E0,6.95647E1,7.37229E1,7.1240735E2,1.0026855E0,0E0,2.8683254E1,7.5975513E0,7.230652E0,2.653763E1,6.969143E2,3.0189407E2,1.3908691E1,2.5501523E2,1.0721677E3,2.3026273E2,1.8820496E0,0E0,1.7055885E1,1.2944626E1,1.0321716E1,9.597055E0,5.303955E0,2.8173828E-1,1.641211E1,4.7838432E1,4.456787E-1,7.010617E1,6.127821E2,2.2159912E2,1.793633E0,8.498535E-1,0E0,0E0,0E0,0E0,0E0,0E0,0E0,0E0,0E0,0E0,0E0,0E0,0E0,0E0,0E0,0E0,0E0,0E0,0E0,0E0,0E0,0E0,0E0,0E0,0E0,0E0,0E0,0E0,0E0,0E0,0E0,0E0,0E0,0E0,0E0,0E0,0E0,0E0,0E0,0E0,0E0,0E0,0E0,0E0,0E0,0E0,0E0,0E0,0E0,0E0],"parents":[2147483647,0,0,1,1,2,2,3,3,4,4,5,5,6,6,8,8,9,9,10,10,11,11,12,12,13,13,14,14,15,15,16,16,17,17,18,18,19,19,20,20,21,21,22,22,23,23,24,24,25,25,26,26,27,27,29,29,30,30,31,31,32,32,33,33,34,34,35,35,36,36,37,37,38,38,39,39,41,41,42,42,43,43,44,44,45,45,46,46,47,47,48,48,49,49,50,50,51,51,52,52,53,53,54,54],"right_children":[2,4,6,8,10,12,14,-1,16,18,20,22,24,26,28,30,32,34,36,38,40,42,44,46,48,50,52,54,-1,56,58,60,62,64,66,68,70,72,74,76,-1,78,80,82,84,86,88,90,92,94,96,98,100,102,104,-1,-1,-1,-1,-1,-1,-1,-1,-1,-1,-1,-1,-1,-1,-1,-1,-1,-1,-1,-1,-1,-1,-1,-1,-1,-1,-1,-1,-1,-1,-1,-1,-1,-1,-1,-1,-1,-1,-1,-1,-1,-1,-1,-1,-1,-1,-1,-1,-1,-1],"split_conditions":[8.15E1,3.4662984E-2,8.45E1,4.791595E-3,1.4449131E-1,8.35E1,2.985E2,-3.1578922E-1,4.75E1,5.95E1,5E-1,5E-1,2.329932E-1,4.3290854E-2,3.355E2,3.65E1,6.65E1,1.25E1,6.05E1,6.05E1,4.6410996E-1,5E-1,5E-1,5E-1,5E-1,6.827211E-3,5E-1,2.995E2,5.106634E-2,3.55E1,2.3274246E-1,5.95E1,7.15E1,1.15E1,2.35E1,3.3184522E-1,5E-1,5.95E1,7.05E1,2.5E0,8.077323E-2,8.25E1,1.7969882E-1,5E-1,4.55E1,1.7764628E-1,1.1700806E-1,5E-1,4.1016567E-1,1.165E2,1.155E2,1.265E2,5E-1,2.1401308E-1,5E-1,-7.869293E-2,-3.1116587E-1,2.229019E-1,8.078923E-1,-1.6137515E-1,-2.663885E-1,2.640097E-1,-1.5443309E-1,4.973624E-2,-3.2968923E-1,1.8570739E-1,-1.232853E-2,-2.8284913E-1,-9.6037194E-2,5.809102E-2,-1.4357676E-1,3.492427E-2,-1.7734501E-1,1.4491627E-1,1.7276397E-2,-9.5724925E-2,-4.1810858E-1,2.2463977E-1,5.4687552E-2,-1.6370115E-1,4.7871344E-2,-3.0269405E-1,3.9895648E-1,-2.3135151E-1,4.7305018E-1,-2.889386E-1,-2.3627307E-1,-3.0990526E-1,-2.9911527E-1,-2.7000493E-1,2.0871408E-1,-1.7273408E-1,1.3714153E-1,-3.4124953E-1,-3.1618828E-1,-3.8309693E-2,-2.5412455E-1,-7.790979E-2,5.0380822E-2,-2.271879E-1,3.9455608E-2,-2.6452795E-1,-2.3544278E-2,-3.157054E-1,-2.680468E-2],"split_indices":[1,5,1,5,3,1,1,0,1,1,17,0,5,5,1,1,1,1,1,1,3,11,65,11,12,5,11,1,0,1,3,1,1,1,1,5,11,1,1,1,0,1,5,66,4,5,5,57,5,1,1,1,0,5,7,0,0,0,0,0,0,0,0,0,0,0,0,0,0,0,0,0,0,0,0,0,0,0,0,0,0,0,0,0,0,0,0,0,0,0,0,0,0,0,0,0,0,0,0,0,0,0,0,0,0],"split_type":[0,0,0,0,0,0,0,0,0,0,0,0,0,0,0,0,0,0,0,0,0,0,0,0,0,0,0,0,0,0,0,0,0,0,0,0,0,0,0,0,0,0,0,0,0,0,0,0,0,0,0,0,0,0,0,0,0,0,0,0,0,0,0,0,0,0,0,0,0,0,0,0,0,0,0,0,0,0,0,0,0,0,0,0,0,0,0,0,0,0,0,0,0,0,0,0,0,0,0,0,0,0,0,0,0],"sum_hessian":[6.884246E4,3.764865E4,3.1193814E4,1.6463883E3,3.600226E4,1.0196696E4,2.099712E4,9.883211E2,6.580672E2,1.0783978E4,2.5218283E4,6.1233154E2,9.584364E3,1.872167E4,2.2754478E3,2.7581705E2,3.8225015E2,6.720164E3,4.0638132E3,2.5068064E4,1.5021805E2,3.2210562E2,2.9022592E2,6.361401E3,3.2229636E3,2.0657676E3,1.6655902E4,2.273965E3,1.482773E0,2.4377231E2,3.2044746E1,3.009486E2,8.130156E1,1.7590477E3,4.9611167E3,1.7987697E3,2.2650435E3,1.9922879E4,5.1451855E3,1.4859926E2,1.618783E0,2.1562794E2,1.0647768E2,2.8425638E2,5.9695344E0,1.7225376E3,4.6388633E3,2.897616E3,3.2534787E2,1.3066517E3,7.5911584E2,1.3974882E4,2.681021E3,1.4401188E1,2.259564E3,1.7907605E2,6.469626E1,3.067196E1,1.3727878E0,9.088327E1,2.1006534E2,1.623176E1,6.50698E1,9.68338E2,7.907097E2,8.314315E2,4.129685E3,1.7608301E3,3.7939617E1,1.2062125E3,1.0588309E3,1.7483393E4,2.4394875E3,2.843936E3,2.3012495E3,2.3397055E0,1.4625955E2,9.57197E1,1.1990823E2,6.342572E1,4.3051956E1,2.831738E2,1.0825864E0,1.911929E0,4.0576057E0,1.491579E3,2.3095863E2,3.1141433E3,1.5247198E3,2.891839E3,5.776762E0,2.7249603E2,5.285184E1,2.947953E2,1.0118565E3,1.7697713E2,5.8213873E2,8.40266E3,5.5722217E3,2.363053E3,3.1796802E2,1.0454707E1,3.9464803E0,2.258453E3,1.1111223E0],"tree_param":{"num_deleted":"0","num_feature":"70","num_nodes":"105","size_leaf_vector":"0"}},{"base_weights":[-2.1395542E-1,-3.912749E-2,-4.4342044E-1,-9.820821E-1,-1.6422171E-2,-8.655799E-1,-2.7244845E-1,-1.0372505E0,-5.8943933E-1,-6.9964536E-2,2.3187122E-1,-2.9191226E-1,-9.074517E-1,9.51575E-2,-4.586787E-1,2.4053633E0,-6.4130944E-1,-3.362478E-1,4.38275E-2,1.4357798E-1,8.436714E-1,1.4969912E-1,-8.870466E-1,-9.728854E-1,-7.8370893E-1,-1.079093E0,1.4051633E-1,-9.744347E-1,-2.4615937E-1,3.9451396E-1,-6.833044E-1,3.9058518E-1,-3.7457597E-1,-1.2102089E-1,2.1383752E-1,2.0529068E-1,-8.275018E-1,8.8154113E-1,3.405658E-1,3.181888E-1,-2.0194855E-1,-9.299209E-1,5.62032E-1,-8.9427024E-1,-1.0026138E0,-4.6420467E-1,-8.7844527E-1,-1.0870489E0,1.8366204E-1,2.1427089E-1,-5.392854E-1,-3.2805198E-1,-9.898318E-1,1.3712072E-1,-6.177055E-1,1.219561E0,-7.873422E-1,-7.098304E-1,1.7410326E-1,1.1428643E-2,7.7878946E-1,-7.1204674E-1,-3.07101E-1,-5.162682E-1,1.6195782E-2,2.4894497E-1,-1.2620012E0,1.199858E-1,1.2184289E0,-9.3437713E-1,-3.8826588E-1,9.5420325E-1,6.560458E-1,7.468212E-1,-3.9795348E-1,-6.588655E-1,3.688439E-1,-3.261018E-1,6.05881E-1,-9.4613683E-1,9.28088E-1,-7.032442E-1,1.0499151E0,-9.674382E-1,-8.122003E-1,-1.0180558E0,-9.7055334E-1,-2.1729529E-1,-7.529168E-1,-8.9396507E-1,-7.0920354E-1,-1.0907065E0,-3.7364325E-1,9.975521E-2,6.7489684E-1,-6.6846573E-1,7.47067E-1,-4.2743322E-1,3.2017612E0,-1.0181004E0,-9.193383E-1,-2.3981315E-1,1.2061083E0,-1.1746604E0,-3.9172927E-1],"categories":[],"categories_nodes":[],"categories_segments":[],"categories_sizes":[],"default_left":[true,true,true,true,true,true,true,false,true,true,true,true,true,true,true,false,true,true,true,true,true,true,true,true,true,true,true,true,true,true,true,true,true,true,true,true,true,true,true,true,true,true,true,true,true,true,true,true,false,true,true,true,true,true,true,false,false,false,false,false,false,false,false,false,false,false,false,false,false,false,false,false,false,false,false,false,false,false,false,false,false,false,false,false,false,false,false,false,false,false,false,false,false,false,false,false,false,false,false,false,false,false,false,false,false],"id":9,"left_children":[1,3,5,7,9,11,13,-1,15,17,19,21,23,25,27,-1,29,31,33,35,37,39,41,43,45,47,49,51,53,55,57,59,61,63,65,67,69,71,73,75,77,79,81,83,85,87,89,91,-1,93,95,97,99,101,103,-1,-1,-1,-1,-1,-1,-1,-1,-1,-1,-1,-1,-1,-1,-1,-1,-1,-1,-1,-1,-1,-1,-1,-1,-1,-1,-1,-1,-1,-1,-1,-1,-1,-1,-1,-1,-1,-1,-1,-1,-1,-1,-1,-1,-1,-1,-1,-1,-1,-1],"loss_changes":[2.5494763E3,7.7227075E2,1.9833052E3,1.776001E1,4.6829227E2,1.9000488E2,1.3391974E3,0E0,1.8133038E1,8.7802783E2,3.3741415E2,1.4213515E2,5.90083E1,3.5053537E2,1.4228994E3,0E0,4.870575E0,2.418291E2,5.690067E2,3.274813E2,1.4710205E1,1.8491507E1,1.4830322E1,1.0378418E1,7.703247E1,2.6587524E0,3.1772485E2,3.738037E1,1.3097053E3,5.5968885E0,2.443798E0,6.402736E1,1.8744531E2,5.590632E2,5.181782E2,4.4375247E2,1.4966888E1,1.13688965E1,1.7333008E1,1.0668894E1,1.036338E1,7.6286316E0,5.2084055E0,7.218872E0,7.409668E-1,4.1697548E1,4.5461426E0,2.2756958E-1,0E0,3.0141107E2,1.0357373E2,3.2814095E1,6.4367676E0,1.8245991E3,5.872803E2,0E0,0E0,0E0,0E0,0E0,0E0,0E0,0E0,0E0,0E0,0E0,0E0,0E0,0E0,0E0,0E0,0E0,0E0,0E0,0E0,0E0,0E0,0E0,0E0,0E0,0E0,0E0,0E0,0E0,0E0,0E0,0E0,0E0,0E0,0E0,0E0,0E0,0E0,0E0,0E0,0E0,0E0,0E0,0E0,0E0,0E0,0E0,0E0,0E0,0E0],"parents":[2147483647,0,0,1,1,2,2,3,3,4,4,5,5,6,6,8,8,9,9,10,10,11,11,12,12,13,13,14,14,16,16,17,17,18,18,19,19,20,20,21,21,22,22,23,23,24,24,25,25,26,26,27,27,28,28,29,29,30,30,31,31,32,32,33,33,34,34,35,35,36,36,37,37,38,38,39,39,40,40,41,41,42,42,43,43,44,44,45,45,46,46,47,47,49,49,50,50,51,51,52,52,53,53,54,54],"right_children":[2,4,6,8,10,12,14,-1,16,18,20,22,24,26,28,-1,30,32,34,36,38,40,42,44,46,48,50,52,54,56,58,60,62,64,66,68,70,72,74,76,78,80,82,84,86,88,90,92,-1,94,96,98,100,102,104,-1,-1,-1,-1,-1,-1,-1,-1,-1,-1,-1,-1,-1,-1,-1,-1,-1,-1,-1,-1,-1,-1,-1,-1,-1,-1,-1,-1,-1,-1,-1,-1,-1,-1,-1,-1,-1,-1,-1,-1,-1,-1,-1,-1,-1,-1,-1,-1,-1,-1],"split_conditions":[8.15E1,1.6495477E-2,8.45E1,4.791595E-3,5E-1,8.35E1,1.185E2,-3.1117517E-1,6.827211E-3,8.95E1,7.25E1,5E-1,2.329932E-1,1.4440622E-2,1.205E2,7.21609E-1,8E0,5.5E0,5E-1,7.15E1,5E-1,5E-1,5E-1,5E-1,5E-1,5E-1,1.018E3,1.195E2,2.395E2,1.0636081E-1,7.25E1,5E-1,1.35E1,1.6629617E-1,7.75E1,6.65E1,1.35E2,2.1749195E-1,5E-1,2.9910713E-2,5E-1,5E-1,4.55E1,1.046851E-1,1.1700806E-1,3.5504204E-1,4.8959637E-1,4E0,5.5098616E-2,3.693957E-1,5.720988E-1,4.5436436E-1,2.3615935E-1,1.865E2,2.405E2,3.658683E-1,-2.3620267E-1,-2.1294913E-1,5.223098E-2,3.428593E-3,2.3363684E-1,-2.1361403E-1,-9.21303E-2,-1.5488046E-1,4.8587346E-3,7.4683495E-2,-3.7860036E-1,3.599574E-2,3.6552867E-1,-2.8031316E-1,-1.1647977E-1,2.86261E-1,1.9681375E-1,2.2404638E-1,-1.1938605E-1,-1.9765966E-1,1.1065318E-1,-9.783055E-2,1.817643E-1,-2.8384107E-1,2.784264E-1,-2.1097328E-1,3.1497455E-1,-2.9023147E-1,-2.436601E-1,-3.0541676E-1,-2.91166E-1,-6.518859E-2,-2.2587505E-1,-2.6818952E-1,-2.1276107E-1,-3.2721195E-1,-1.1209298E-1,2.9926565E-2,2.0246907E-1,-2.0053972E-1,2.241201E-1,-1.2822998E-1,9.6052843E-1,-3.054301E-1,-2.758015E-1,-7.1943946E-2,3.618325E-1,-3.5239816E-1,-1.1751878E-1],"split_indices":[1,5,1,5,12,1,1,0,5,4,1,0,5,5,1,0,1,1,0,1,43,11,65,11,11,68,4,1,1,3,1,0,1,5,1,1,4,3,2,5,54,66,4,5,5,3,5,4,0,5,5,5,5,1,1,0,0,0,0,0,0,0,0,0,0,0,0,0,0,0,0,0,0,0,0,0,0,0,0,0,0,0,0,0,0,0,0,0,0,0,0,0,0,0,0,0,0,0,0,0,0,0,0,0,0],"split_type":[0,0,0,0,0,0,0,0,0,0,0,0,0,0,0,0,0,0,0,0,0,0,0,0,0,0,0,0,0,0,0,0,0,0,0,0,0,0,0,0,0,0,0,0,0,0,0,0,0,0,0,0,0,0,0,0,0,0,0,0,0,0,0,0,0,0,0,0,0,0,0,0,0,0,0,0,0,0,0,0,0,0,0,0,0,0,0,0,0,0,0,0,0,0,0,0,0,0,0,0,0,0,0,0,0],"sum_hessian":[6.3550617E4,3.6070164E4,2.7480455E4,8.471153E2,3.5223047E4,7.9201553E3,1.95603E4,7.413149E2,1.0580037E2,2.8975455E4,6.247593E3,5.3930664E2,7.380849E3,6.5774155E3,1.2982885E4,1.0287899E0,1.04771576E2,8.674475E3,2.030098E4,5.460748E3,7.868447E2,3.1001364E2,2.2929295E2,4.82342E3,2.5574292E3,2.4377493E2,6.3336406E3,3.787513E3,9.195372E3,3.7551425E0,1.0101643E2,4.3405798E2,8.240416E3,1.0307101E4,9.993881E3,5.1351924E3,3.2555594E2,7.310639E2,5.5780827E1,2.0965431E2,1.0035934E2,2.2305173E2,6.2412257E0,1.3320277E3,3.491392E3,5.8623035E2,1.9711989E3,2.4238693E2,1.3880073E0,5.7143516E3,6.192893E2,8.864028E1,3.6988726E3,4.526524E3,4.6688477E3,2.1925988E0,1.5625437E0,9.815199E1,2.864447E0,2.2010869E2,2.1394928E2,1.3714854E3,6.868931E3,2.6554417E3,7.6516587E3,9.762481E3,2.3139986E2,4.737426E3,3.977665E2,2.6093716E2,6.461877E1,5.5045685E2,1.8060707E2,3.5978184E1,1.9802645E1,9.741915E0,1.999124E2,8.750694E1,1.2852396E1,2.2160841E2,1.4433283E0,1.6140163E0,4.6272097E0,6.985025E2,6.3352527E2,2.3356577E3,1.1557344E3,3.1693613E2,2.692942E2,1.8016976E3,1.6950122E2,2.4062437E2,1.7625532E0,4.577549E3,1.1368026E3,5.6320996E2,5.6079304E1,8.706781E1,1.5724697E0,2.630555E3,1.0683175E3,3.3470886E3,1.1794354E3,1.3463506E3,3.322497E3],"tree_param":{"num_deleted":"0","num_feature":"70","num_nodes":"105","size_leaf_vector":"0"}},{"base_weights":[-1.6985582E-1,3.6442053E-2,-3.109213E-1,-3.0530324E-2,4.018611E-1,-6.385851E-1,-2.0495062E-1,3.6642335E-2,-7.195758E-1,3.8804558E-1,1.49567E0,-1.0153409E0,-5.412857E-1,-6.062975E-2,-4.5563024E-1,-5.639227E-2,4.117042E-1,-8.6544734E-1,-2.0156421E-1,4.2670324E-1,5.5195633E-2,1.7403548E0,8.8722634E-1,-1.0348331E0,-8.1815046E-1,-3.6717E-1,-7.3359364E-1,-1.2805837E-2,-1.023453E0,-1.7963219E-1,-7.1115357E-1,9.2451565E-2,-7.876013E-1,4.550777E-1,1.92038E-1,-3.8630363E-1,-1.0387496E0,1.2805837E-1,-7.7857244E-1,4.6686807E-1,1.2943274E-1,1.6202511E-1,-3.2471734E-1,2.0212352E0,8.5545594E-1,9.56327E-1,1.6348444E-1,-6.1992955E-1,-8.7307686E-1,3.3626612E-3,-6.793089E-1,-5.0810707E-1,-9.129173E-1,-3.2803383E-2,1.5692197E0,-1.0258638E0,-7.6267496E-2,-6.0860723E-1,1.23055115E-1,-7.4528426E-1,6.6902447E-1,-1.1647221E-2,4.308162E-1,-9.954548E-1,-2.807346E-1,5.7080215E-1,3.3221295E-1,-6.576829E-1,2.457527E-1,-6.760995E-1,3.1424212E-1,-1.0801573E0,5.0216144E-1,-5.1082164E-1,7.018496E-1,-9.9982905E-1,-8.004632E-3,4.903499E-1,1.3862305E-2,1.6483877E-2,6.212223E-1,4.6769857E-1,3.4331173E-2,-1.9863035E-1,-1.4548967E0,2.1103024E0,6.6141087E-1,1.2182025E0,-4.749629E-1,1.7866925E0,-7.365366E-1,-9.104502E-1,-5.9319293E-1,-2.1788365E-1,7.76318E-1,-9.746267E-1,-5.0016457E-1,-9.078456E-1,-5.7362895E-2,-9.3682426E-1,-3.808716E-4,-7.223331E-2,4.0958473E-1,1.14434E0,2.147804E0,-5.4250467E-1,4.3688196E-1,-7.422863E-1,9.528993E-2,3.5640985E-1,-2.6122338E-1,-7.694122E-1,9.646874E-1,1.4454417E0,-9.351049E-1],"categories":[],"categories_nodes":[],"categories_segments":[],"categories_sizes":[],"default_left":[true,true,true,true,true,true,true,true,true,true,true,true,true,true,true,true,true,true,true,true,true,true,true,false,true,true,true,true,true,true,true,true,true,true,true,true,true,true,true,true,true,true,true,true,true,false,false,true,true,true,true,true,true,true,true,false,true,true,true,true,true,false,false,false,false,false,false,false,false,false,false,false,false,false,false,false,false,false,false,false,false,false,false,false,false,false,false,false,false,false,false,false,false,false,false,false,false,false,false,false,false,false,false,false,false,false,false,false,false,false,false,false,false,false,false],"id":10,"left_children":[1,3,5,7,9,11,13,15,17,19,21,23,25,27,29,31,33,35,37,39,41,43,45,-1,47,49,51,53,55,57,59,61,63,65,67,69,71,73,75,77,79,81,83,85,87,-1,-1,89,91,93,95,97,99,101,103,-1,105,107,109,111,113,-1,-1,-1,-1,-1,-1,-1,-1,-1,-1,-1,-1,-1,-1,-1,-1,-1,-1,-1,-1,-1,-1,-1,-1,-1,-1,-1,-1,-1,-1,-1,-1,-1,-1,-1,-1,-1,-1,-1,-1,-1,-1,-1,-1,-1,-1,-1,-1,-1,-1,-1,-1,-1,-1],"loss_changes":[1.7264951E3,5.8965216E2,1.2232827E3,9.42511E2,5.5813904E1,3.1507227E2,9.6321545E2,6.4747046E2,1.3650433E2,4.7413635E1,5.333679E0,5.941284E0,2.2892249E2,7.780779E2,6.8591125E2,1.6182369E3,3.5049866E1,1.1676843E2,7.593841E1,3.937567E1,1.5668838E1,6.2016373E0,6.083193E-1,0E0,1.2404099E0,4.1571582E2,1.3101111E2,5.0938608E2,1.7476196E0,6.0747186E2,2.3842822E2,4.3516107E2,2.6465686E2,4.3589905E1,2.7996336E1,7.6626755E1,6.662341E1,9.370197E1,2.4732498E1,3.0941406E1,2.1904608E1,1.1732307E1,1.179246E1,1.4487839E0,5.1255174E0,0E0,0E0,1.2247845E1,7.7464294E-1,2.8139108E2,1.0272406E2,2.598779E2,3.9484253E1,2.7737057E2,4.6950226E1,0E0,9.8115504E-1,1.8218353E2,2.461084E2,2.0412354E2,1.5381909E2,0E0,0E0,0E0,0E0,0E0,0E0,0E0,0E0,0E0,0E0,0E0,0E0,0E0,0E0,0E0,0E0,0E0,0E0,0E0,0E0,0E0,0E0,0E0,0E0,0E0,0E0,0E0,0E0,0E0,0E0,0E0,0E0,0E0,0E0,0E0,0E0,0E0,0E0,0E0,0E0,0E0,0E0,0E0,0E0,0E0,0E0,0E0,0E0,0E0,0E0,0E0,0E0,0E0,0E0],"parents":[2147483647,0,0,1,1,2,2,3,3,4,4,5,5,6,6,7,7,8,8,9,9,10,10,11,11,12,12,13,13,14,14,15,15,16,16,17,17,18,18,19,19,20,20,21,21,22,22,24,24,25,25,26,26,27,27,28,28,29,29,30,30,31,31,32,32,33,33,34,34,35,35,36,36,37,37,38,38,39,39,40,40,41,41,42,42,43,43,44,44,47,47,48,48,49,49,50,50,51,51,52,52,53,53,54,54,56,56,57,57,58,58,59,59,60,60],"right_children":[2,4,6,8,10,12,14,16,18,20,22,24,26,28,30,32,34,36,38,40,42,44,46,-1,48,50,52,54,56,58,60,62,64,66,68,70,72,74,76,78,80,82,84,86,88,-1,-1,90,92,94,96,98,100,102,104,-1,106,108,110,112,114,-1,-1,-1,-1,-1,-1,-1,-1,-1,-1,-1,-1,-1,-1,-1,-1,-1,-1,-1,-1,-1,-1,-1,-1,-1,-1,-1,-1,-1,-1,-1,-1,-1,-1,-1,-1,-1,-1,-1,-1,-1,-1,-1,-1,-1,-1,-1,-1,-1,-1,-1,-1,-1,-1],"split_conditions":[5.95E1,4.85E1,9.1938704E-2,4.75E1,5E-1,1.5147708E-2,5E-1,3.65E1,5E-1,5E-1,1.5099716E-1,4.791595E-3,5E-1,2.995E2,7.75E1,3.55E1,3.2333678E-1,5E-1,2.63129E-1,5.85E1,5.75E1,6.4E1,5.85E1,-3.1044993E-1,8.35E1,1.185E2,8.05E1,6.9E-1,3.215E2,6.05E1,5E-1,2.55E1,2.3195273E-1,5E-1,3.3576983E-1,9.8E1,4.118107E-1,1.39E2,3.2087278E-1,5E-1,5E-1,1.56E2,5E-1,5E-1,5E-1,2.868981E-1,4.9045336E-2,7.093626E-3,5E-1,9.05E1,1.265E2,6.05E1,5E-1,2.405E2,1.145E2,-3.0775914E-1,2.0416667E-1,2.1975E3,7.05E1,5E-1,1.155E2,-3.4941663E-3,1.2924486E-1,-2.9863644E-1,-8.422038E-2,1.7124066E-1,9.966389E-2,-1.9730487E-1,7.372581E-2,-2.0282985E-1,9.427264E-2,-3.240472E-1,1.5064844E-1,-1.5324649E-1,2.1055488E-1,-2.9994872E-1,-2.4013896E-3,1.4710498E-1,4.158692E-3,4.945163E-3,1.863667E-1,1.4030957E-1,1.0299352E-2,-5.9589107E-2,-4.3646902E-1,6.3309073E-1,1.9842327E-1,3.6546075E-1,-1.4248887E-1,5.3600776E-1,-2.2096099E-1,-2.7313507E-1,-1.7795789E-1,-6.53651E-2,2.3289542E-1,-2.9238802E-1,-1.5004937E-1,-2.723537E-1,-1.7208869E-2,-2.8104728E-1,-1.14261486E-4,-2.1669995E-2,1.2287542E-1,3.43302E-1,6.4434123E-1,-1.627514E-1,1.310646E-1,-2.226859E-1,2.858698E-2,1.0692296E-1,-7.836702E-2,-2.3082368E-1,2.8940624E-1,4.3363252E-1,-2.805315E-1],"split_indices":[1,1,5,1,15,5,11,1,0,39,5,5,11,1,1,1,3,11,3,1,1,4,1,0,1,1,1,5,1,1,65,1,5,0,3,4,3,4,5,43,12,4,49,27,60,0,0,5,45,1,1,1,66,1,1,0,5,4,1,66,1,0,0,0,0,0,0,0,0,0,0,0,0,0,0,0,0,0,0,0,0,0,0,0,0,0,0,0,0,0,0,0,0,0,0,0,0,0,0,0,0,0,0,0,0,0,0,0,0,0,0,0,0,0,0],"split_type":[0,0,0,0,0,0,0,0,0,0,0,0,0,0,0,0,0,0,0,0,0,0,0,0,0,0,0,0,0,0,0,0,0,0,0,0,0,0,0,0,0,0,0,0,0,0,0,0,0,0,0,0,0,0,0,0,0,0,0,0,0,0,0,0,0,0,0,0,0,0,0,0,0,0,0,0,0,0,0,0,0,0,0,0,0,0,0,0,0,0,0,0,0,0,0,0,0,0,0,0,0,0,0,0,0,0,0,0,0,0,0,0,0,0,0],"sum_hessian":[5.932526E4,2.40925E4,3.523276E4,2.0361629E4,3.730872E3,8.608881E3,2.662388E4,1.8553826E4,1.8078015E3,3.6856746E3,4.519771E1,1.7650275E3,6.843853E3,1.6897133E4,9.726748E3,1.4866918E4,3.6869094E3,1.4100596E3,3.9774197E2,3.3019048E3,3.837697E2,3.0907827E1,1.4289882E1,1.6023857E3,1.6264175E2,3.5933452E3,3.2505078E3,1.6098525E4,7.9860846E2,4.676851E3,5.0498975E3,1.2353193E4,2.5137244E3,3.0780676E3,6.088418E2,3.7539685E2,1.0346627E3,2.5363065E2,1.4411134E2,2.9083772E3,3.935275E2,2.999882E2,8.378153E1,2.2486217E1,8.421611E0,1.2751081E1,1.5387996E0,3.7954887E1,1.2468686E2,1.6434426E3,1.9499026E3,1.4416146E3,1.8088931E3,1.5898539E4,1.9998572E2,7.9649817E2,2.1103308E0,1.9343861E3,2.7424648E3,4.92848E3,1.2141724E2,9.447584E3,2.905609E3,1.7820044E3,7.317198E2,1.5832157E3,1.4948519E3,3.55308E1,5.7331104E2,2.6557214E2,1.0982472E2,1.0078778E3,2.678486E1,1.2006058E2,1.3357007E2,1.1173177E2,3.237957E1,2.764971E3,1.4340617E2,3.2086765E2,7.265986E1,8.76085E1,2.1237968E2,7.643042E1,7.35111E0,2.058596E1,1.9002557E0,6.683627E0,1.7379841E0,1.0921419E0,3.6862747E1,1.0801101E2,1.6675852E1,1.2782747E3,3.6516788E2,7.345548E2,1.2153478E3,7.634985E2,6.781161E2,1.762687E3,4.6206078E1,1.4598239E4,1.3003004E3,1.17026146E2,8.295957E1,1.0757344E0,1.0345963E0,1.6256078E3,3.0877832E2,1.7063494E3,1.0361154E3,4.860448E3,6.803164E1,8.188357E1,3.9533672E1],"tree_param":{"num_deleted":"0","num_feature":"70","num_nodes":"115","size_leaf_vector":"0"}},{"base_weights":[-1.342847E-1,-9.185294E-1,-1.0636606E-1,-1.0249469E0,-6.1028063E-1,-3.4352418E-3,-2.703751E-1,-3.7389946E-1,-7.673038E-1,4.9372353E-3,-1.1528553E0,-7.807392E-1,-1.213723E-1,-4.3346608E-1,6.053372E-1,-9.6664727E-1,-6.78948E-1,1.7322862E-1,-4.6489578E-2,-1.1671782E0,8.2602036E-1,-1.5480112E-1,-8.12246E-1,-5.9956368E-2,-1.0025778E0,1.3461471E0,-4.5767003E-1,9.71305E-2,2.6126194E0,-9.8818904E-1,-2.7984518E-1,-5.165551E-1,-9.9620396E-1,-2.1543698E-2,5.261615E-1,-9.216538E-1,-5.8039543E-3,-1.1962804E0,-9.106437E-2,7.015529E-2,-6.608343E-1,-9.140946E-1,-6.5445995E-1,2.0235945E-1,-1.8246163E-1,-5.345785E-1,-1.0067606E0,2.7886817E-1,-5.106344E-1,8.5373765E-1,-8.190053E-1,-9.995499E-1,-2.2369912E-1,-6.77932E-1,4.239237E-1,-6.555937E-1,1.2941809E0,-1.0103682E0,-1.461243E-1,2.310092E-1,-5.7561535E-1,7.190605E-1,3.71327E-1,-8.336278E-1,-2.6495788E0,3.3794215E-1,-4.9272414E-2,-2.0215173E-1,-1.212825E0,7.3850054E-1,-1.018838E0,-3.0297296E-2,5.634472E-1,-7.088054E-1,6.476142E-1,-7.969584E-1,-9.642238E-1,-3.7016332E-1,-7.709116E-1,2.8497675E-2,5.7783884E-1,-5.8829576E-1,8.030308E-2,3.540825E-1,-6.703086E-1,-1.0085688E0,-2.3021778E-1],"categories":[],"categories_nodes":[],"categories_segments":[],"categories_sizes":[],"default_left":[true,true,true,false,true,true,true,true,true,true,true,true,true,true,true,true,true,true,true,true,false,true,true,true,true,false,true,true,false,true,true,true,true,true,true,true,true,true,true,true,true,true,true,true,true,true,true,false,false,false,false,false,false,false,false,false,false,false,false,false,false,false,false,false,false,false,false,false,false,false,false,false,false,false,false,false,false,false,false,false,false,false,false,false,false,false,false],"id":11,"left_children":[1,3,5,-1,7,9,11,13,15,17,19,21,23,25,27,29,31,33,35,37,-1,39,41,43,45,-1,47,49,-1,51,53,55,57,59,61,63,65,67,69,71,73,75,77,79,81,83,85,-1,-1,-1,-1,-1,-1,-1,-1,-1,-1,-1,-1,-1,-1,-1,-1,-1,-1,-1,-1,-1,-1,-1,-1,-1,-1,-1,-1,-1,-1,-1,-1,-1,-1,-1,-1,-1,-1,-1,-1],"loss_changes":[1.2165774E3,6.203076E1,9.058553E2,0E0,1.7999374E1,3.1728845E2,1.5733531E3,1.1846178E1,4.5408325E0,2.8329498E2,7.7217407E0,9.20813E1,8.667442E2,8.704742E0,1.1788486E1,1.0292664E0,1.0191849E1,5.2667084E2,8.9271423E2,7.3170776E0,0E0,2.5693497E1,7.093408E1,4.8122278E2,1.5045166E0,0E0,7.3988113E0,7.948563E0,0E0,5.1621246E-1,1.43022E0,3.5976875E1,6.8655396E-1,6.911021E2,8.11087E1,1.6719946E2,3.5801425E2,3.5508423E0,6.391029E0,7.7903543E0,4.8170147E0,1.510083E1,5.7638977E1,3.1120026E2,1.0885693E3,1.6094611E0,1.2185059E0,0E0,0E0,0E0,0E0,0E0,0E0,0E0,0E0,0E0,0E0,0E0,0E0,0E0,0E0,0E0,0E0,0E0,0E0,0E0,0E0,0E0,0E0,0E0,0E0,0E0,0E0,0E0,0E0,0E0,0E0,0E0,0E0,0E0,0E0,0E0,0E0,0E0,0E0,0E0,0E0],"parents":[2147483647,0,0,1,1,2,2,4,4,5,5,6,6,7,7,8,8,9,9,10,10,11,11,12,12,13,13,14,14,15,15,16,16,17,17,18,18,19,19,21,21,22,22,23,23,24,24,26,26,27,27,29,29,30,30,31,31,32,32,33,33,34,34,35,35,36,36,37,37,38,38,39,39,40,40,41,41,42,42,43,43,44,44,45,45,46,46],"right_children":[2,4,6,-1,8,10,12,14,16,18,20,22,24,26,28,30,32,34,36,38,-1,40,42,44,46,-1,48,50,-1,52,54,56,58,60,62,64,66,68,70,72,74,76,78,80,82,84,86,-1,-1,-1,-1,-1,-1,-1,-1,-1,-1,-1,-1,-1,-1,-1,-1,-1,-1,-1,-1,-1,-1,-1,-1,-1,-1,-1,-1,-1,-1,-1,-1,-1,-1,-1,-1,-1,-1,-1,-1],"split_conditions":[2.3543268E-2,4.791595E-3,8.25E1,-3.074841E-1,8.25E1,5E-1,8.45E1,7.25E1,8.45E1,2.35E1,5E-1,8.35E1,2.985E2,6.207912E-3,5E-1,5E-1,2.825E2,1.35E1,2.45E1,4.8061866E-1,2.4780612E-1,5E-1,2.329932E-1,1.075E2,2.995E2,4.0384415E-1,8.5E0,9.930805E-2,7.837859E-1,5E-1,5E-1,2.405E2,5E-1,1.15E1,1.9456735E-1,4.416988E-1,3.45E1,2.5E0,8.5E0,5E-1,3.6762276E-1,5E-1,5E-1,9.65E1,1.265E2,4E0,3.215E2,8.366045E-2,-1.5319033E-1,2.561213E-1,-2.457016E-1,-2.9986498E-1,-6.710974E-2,-2.0337962E-1,1.2717712E-1,-1.9667812E-1,3.8825428E-1,-3.0311048E-1,-4.3837294E-2,6.930276E-2,-1.7268461E-1,2.1571815E-1,1.1139811E-1,-2.5008836E-1,-7.9487365E-1,1.0138265E-1,-1.4781725E-2,-6.064552E-2,-3.638475E-1,2.2155017E-1,-3.0565143E-1,-9.08919E-3,1.6903415E-1,-2.1264163E-1,1.9428426E-1,-2.3908752E-1,-2.8926715E-1,-1.11049004E-1,-2.3127349E-1,8.549303E-3,1.7335166E-1,-1.7648873E-1,2.4090925E-2,1.0622475E-1,-2.0109259E-1,-3.0257064E-1,-6.906534E-2],"split_indices":[5,5,1,0,1,17,1,1,1,1,42,1,1,5,63,57,1,1,1,5,0,0,5,1,1,0,1,3,0,44,12,1,34,1,5,3,1,1,4,45,5,11,11,1,1,4,1,0,0,0,0,0,0,0,0,0,0,0,0,0,0,0,0,0,0,0,0,0,0,0,0,0,0,0,0,0,0,0,0,0,0,0,0,0,0,0,0],"split_type":[0,0,0,0,0,0,0,0,0,0,0,0,0,0,0,0,0,0,0,0,0,0,0,0,0,0,0,0,0,0,0,0,0,0,0,0,0,0,0,0,0,0,0,0,0,0,0,0,0,0,0,0,0,0,0,0,0,0,0,0,0,0,0,0,0,0,0,0,0,0,0,0,0,0,0,0,0,0,0,0,0,0,0,0,0,0,0],"sum_hessian":[5.5567504E4,1.9090726E3,5.3658434E4,1.4174108E3,4.9166183E2,3.2968605E4,2.0689826E4,1.9759116E2,2.940707E2,3.2731186E4,2.3742116E2,4.6744995E3,1.6015326E4,1.8678635E2,1.0804804E1,8.7259766E1,2.0681093E2,7.6604434E3,2.5070742E4,2.361223E2,1.2988479E0,2.2430017E2,4.450199E3,1.4972855E4,1.0424705E3,1.773475E0,1.8501288E2,9.458481E0,1.3463231E0,8.418058E1,3.0791826E0,1.3853012E2,6.8280815E1,4.936878E3,2.7235654E3,1.1127783E3,2.3957965E4,2.2979608E2,6.3262224E0,1.5586981E2,6.843036E1,2.7015781E3,1.7486212E3,4.7663022E3,1.0206553E4,1.0375713E1,1.0320948E3,1.2125589E1,1.7288728E2,5.2175684E0,4.240912E0,8.264494E1,1.5356369E0,1.9901606E0,1.0890222E0,1.2924397E2,9.286148E0,6.697628E1,1.3045343E0,3.3915496E3,1.5453282E3,1.211093E3,1.5124725E3,1.0602483E3,5.2529964E1,2.6887454E3,2.1269219E4,3.9781137E0,2.2581796E2,3.447586E0,2.8786366E0,1.3027878E2,2.5591026E1,6.645233E1,1.9780263E0,8.1472296E2,1.886855E3,5.0933817E2,1.239283E3,3.258544E3,1.5077587E3,4.0107703E3,6.1957827E3,1.1616113E0,9.214102E0,1.0293989E3,2.6958816E0],"tree_param":{"num_deleted":"0","num_feature":"70","num_nodes":"87","size_leaf_vector":"0"}},{"base_weights":[-1.0369113E-1,-9.5664656E-1,-8.341598E-2,-1.0175596E0,-5.829791E-1,-6.914424E-2,-9.888507E-1,-3.4927022E-1,-7.5159526E-1,-8.339366E-2,6.234086E-1,-9.9238694E-1,7.746544E-2,1.5698736E0,-3.9894053E-1,-8.298402E-1,-2.791597E-1,-1.1981549E-1,1.7287207E-1,4.5155254E-1,1.4726017E0,-9.9750596E-1,-7.664161E-1,5.227343E-1,-5.3017396E-1,-5.408491E-1,-8.446688E-2,-8.4951866E-1,1.1654019E-1,-8.379194E-1,8.325946E-3,-3.96515E-2,-2.68924E-1,2.863021E-1,-4.6542805E-2,7.8444797E-1,3.74672E-1,1.2659581E0,1.8508192E0,1.7625925E-1,-8.436699E-1,-6.0189515E-1,8.384061E-1,-5.852958E-1,3.7174013E-1,-9.041703E-1,-4.5183086E-1,3.4937608E-1,-7.5425386E-1,2.972888E-2,-2.0684887E-1,-6.9591415E-1,-1.3090743E-1,4.938308E-1,1.792559E-1,2.0214447E-1,-3.497899E-1,8.7079984E-1,-4.0016586E-1,-1.7486964E0,4.7604343E-1,-8.808125E-1,-2.1814123E-1],"categories":[],"categories_nodes":[],"categories_segments":[],"categories_sizes":[],"default_left":[true,true,true,false,true,true,true,true,true,true,true,true,true,false,true,true,true,true,true,true,true,false,true,false,false,true,true,true,false,false,true,true,true,true,true,true,true,false,false,false,true,false,false,false,false,false,false,false,false,false,false,false,false,false,false,false,false,false,false,false,false,false,false],"id":12,"left_children":[1,3,5,-1,7,9,11,13,15,17,19,21,23,-1,25,27,29,31,33,35,37,-1,39,-1,-1,41,43,45,-1,-1,47,49,51,53,55,57,59,-1,-1,-1,61,-1,-1,-1,-1,-1,-1,-1,-1,-1,-1,-1,-1,-1,-1,-1,-1,-1,-1,-1,-1,-1,-1],"loss_changes":[9.1718475E2,2.7435303E1,6.6942255E2,0E0,6.6315002E0,5.034112E2,3.1080933E0,7.7935123E0,3.4928513E0,4.6651108E2,1.494238E2,1.6241455E-1,1.2470275E0,0E0,3.2606134E0,1.6993523E0,2.5487251E0,5.2306476E2,1.5481319E2,2.1633774E1,1.1151184E1,0E0,1.7557316E0,0E0,0E0,4.7874517E0,5.7519164E0,1.423729E0,0E0,0E0,3.23825E0,3.3016046E2,9.015923E2,9.1000275E1,1.5998564E2,1.669815E1,1.5106487E2,0E0,0E0,0E0,2.8573704E-1,0E0,0E0,0E0,0E0,0E0,0E0,0E0,0E0,0E0,0E0,0E0,0E0,0E0,0E0,0E0,0E0,0E0,0E0,0E0,0E0,0E0,0E0],"parents":[2147483647,0,0,1,1,2,2,4,4,5,5,6,6,7,7,8,8,9,9,10,10,11,11,12,12,14,14,15,15,16,16,17,17,18,18,19,19,20,20,22,22,25,25,26,26,27,27,30,30,31,31,32,32,33,33,34,34,35,35,36,36,40,40],"right_children":[2,4,6,-1,8,10,12,14,16,18,20,22,24,-1,26,28,30,32,34,36,38,-1,40,-1,-1,42,44,46,-1,-1,48,50,52,54,56,58,60,-1,-1,-1,62,-1,-1,-1,-1,-1,-1,-1,-1,-1,-1,-1,-1,-1,-1,-1,-1,-1,-1,-1,-1,-1,-1],"split_conditions":[1.6495477E-2,4.791595E-3,2.995E2,-3.052679E-1,8.35E1,5.767E-1,3.215E2,5.410282E-3,5E-1,5E-1,9.3333334E-1,4.4984204E-1,3.395E2,4.7096208E-1,5E-1,5E-1,8.894136E-3,8.05E1,5E-1,2.35E1,1.155E2,-2.992518E-1,1.9921607E-1,1.568203E-1,-1.590522E-1,7.55E1,2.55E1,5E-1,3.4962058E-2,-2.5137582E-1,2.835E2,5E-1,8.45E1,8.25E1,5.95E1,5E-1,2.45E1,3.7978745E-1,5.552458E-1,5.2877776E-2,5E-1,-1.8056855E-1,2.5152183E-1,-1.7558874E-1,1.1152204E-1,-2.7125108E-1,-1.3554926E-1,1.0481283E-1,-2.2627617E-1,8.918664E-3,-6.2054664E-2,-2.0877425E-1,-3.927223E-2,1.4814925E-1,5.3776775E-2,6.0643345E-2,-1.0493697E-1,2.6123998E-1,-1.2004976E-1,-5.2460897E-1,1.4281304E-1,-2.6424378E-1,-6.544237E-2],"split_indices":[5,5,1,0,1,5,1,5,45,45,5,5,1,0,0,68,5,1,11,1,1,0,3,0,0,1,1,32,0,0,1,2,1,1,1,53,1,0,0,0,46,0,0,0,0,0,0,0,0,0,0,0,0,0,0,0,0,0,0,0,0,0,0],"split_type":[0,0,0,0,0,0,0,0,0,0,0,0,0,0,0,0,0,0,0,0,0,0,0,0,0,0,0,0,0,0,0,0,0,0,0,0,0,0,0,0,0,0,0,0,0,0,0,0,0,0,0,0,0,0,0,0,0,0,0,0,0,0,0],"sum_hessian":[5.303907E4,1.2304183E3,5.1808652E4,1.0564749E3,1.7394348E2,5.100576E4,8.028919E2,7.418772E1,9.975576E1,4.9978324E4,1.0274354E3,8.003072E2,2.5847018E0,1.0995057E0,7.308821E1,8.493267E1,1.4823091E1,4.3759523E4,6.218801E3,8.557784E2,1.7165703E2,7.792403E2,2.10669E1,1.5722849E0,1.012417E0,4.986597E1,2.3222242E1,8.330287E1,1.6298007E0,4.3852434E0,1.0437847E1,2.8460047E4,1.5299479E4,4.0992983E3,2.1195027E3,1.58831E2,6.969474E2,1.13818275E2,5.7838753E1,1.4986264E0,1.9568274E1,4.829216E1,1.5738108E0,1.0934867E1,1.22873745E1,7.211852E1,1.1184342E1,7.5866876E0,2.85116E0,2.0114244E4,8.345803E3,3.7362805E3,1.1563198E4,1.393714E3,2.705584E3,1.164693E3,9.548097E2,1.4828662E2,1.0544372E1,3.1016315E1,6.65931E2,1.808624E1,1.4820333E0],"tree_param":{"num_deleted":"0","num_feature":"70","num_nodes":"63","size_leaf_vector":"0"}},{"base_weights":[-7.7466615E-2,-9.902948E-1,-6.2443063E-2,-1.0131046E0,-6.237847E-1,-5.120872E-2,-9.71699E-1,-2.6420662E-1,-7.6948863E-1,-2.8273929E-2,-3.6746532E-1,-9.7480243E-1,4.601497E-1,-4.6665666E-1,1.2450668E0,-8.113789E-1,-1.0777278E-1,-3.9817087E-2,5.5235225E-1,-2.5315288E-1,-5.1284695E-1,-9.776876E-1,-3.8235757E-1,-5.5322814E-1,2.885324E-1,-8.3478796E-1,-6.6293165E-2,-5.6372726E-1,4.2988357E-1,-2.1099254E-2,-7.054527E-1,2.1915228E0,2.0002674E-1,1.0046961E-1,-3.2232767E-1,-4.1839477E-2,-6.160765E-1,-9.805883E-1,-5.7680625E-1,-7.4510044E-1,4.6708956E-1,-8.206235E-1,-6.2303532E-2,-8.552859E-1,-3.4144908E-1,-4.2274505E-2,8.808586E-1,-1.102206E0,9.231604E-2,3.0772989E0,1.6388222E0,9.996555E-1,-2.8087887E-1,2.4590145E-1,-2.7762097E-1,-4.6545354E-1,-8.196496E-2,1.510755E-1,-5.465494E-1,-6.6970736E-1,-3.3498007E-1,-9.8868597E-1,-7.855392E-1,-8.3392024E-1,3.273438E-1],"categories":[],"categories_nodes":[],"categories_segments":[],"categories_sizes":[],"default_left":[true,true,true,false,true,true,true,true,true,true,true,true,false,true,false,true,true,true,true,true,true,true,true,true,false,true,false,false,false,true,true,true,true,true,true,true,true,true,true,false,false,false,false,false,false,false,false,false,false,false,false,false,false,false,false,false,false,false,false,false,false,false,false,false,false],"id":13,"left_children":[1,3,5,-1,7,9,11,13,15,17,19,21,-1,23,-1,25,27,29,31,33,35,37,39,41,-1,43,-1,-1,-1,45,47,49,51,53,55,57,59,61,63,-1,-1,-1,-1,-1,-1,-1,-1,-1,-1,-1,-1,-1,-1,-1,-1,-1,-1,-1,-1,-1,-1,-1,-1,-1,-1],"loss_changes":[7.0619446E2,6.338562E0,5.1750226E2,0E0,2.4924297E0,3.630096E2,3.196167E0,5.5798626E0,9.1303825E-1,3.1278998E2,5.6109314E1,6.8133545E-1,0E0,1.1502588E0,0E0,5.3403854E-1,1.0518204E0,5.700873E2,5.249496E2,4.642228E1,7.2353546E1,1.4801025E-1,1.7758808E0,1.7783775E0,0E0,3.8391113E-2,0E0,0E0,0E0,8.500817E2,3.9621802E2,7.370117E1,2.886458E2,1.7171268E1,5.453682E1,2.624276E1,1.8181793E1,1.8341064E-1,1.8623617E0,0E0,0E0,0E0,0E0,0E0,0E0,0E0,0E0,0E0,0E0,0E0,0E0,0E0,0E0,0E0,0E0,0E0,0E0,0E0,0E0,0E0,0E0,0E0,0E0,0E0,0E0],"parents":[2147483647,0,0,1,1,2,2,4,4,5,5,6,6,7,7,8,8,9,9,10,10,11,11,13,13,15,15,16,16,17,17,18,18,19,19,20,20,21,21,22,22,23,23,25,25,29,29,30,30,31,31,32,32,33,33,34,34,35,35,36,36,37,37,38,38],"right_children":[2,4,6,-1,8,10,12,14,16,18,20,22,-1,24,-1,26,28,30,32,34,36,38,40,42,-1,44,-1,-1,-1,46,48,50,52,54,56,58,60,62,64,-1,-1,-1,-1,-1,-1,-1,-1,-1,-1,-1,-1,-1,-1,-1,-1,-1,-1,-1,-1,-1,-1,-1,-1,-1,-1],"split_conditions":[1.1495772E-2,5E-1,2.995E2,-3.039314E-1,8.15E1,5E-1,3.355E2,3.5E0,5E-1,2.525E2,5E-1,3.135E2,1.3804492E-1,7.15E1,3.7352005E-1,5E-1,2.69E2,2.395E2,2.635E2,5.95E1,2.25E1,5E-1,3.3552992E-1,5E-1,8.655973E-2,9.9623315E-3,-1.988795E-2,-1.6911818E-1,1.2896508E-1,1.925E2,2.405E2,1.6780728E-1,1.7326798E-1,3.91E2,1.325E2,2.8764504E-1,1.8685E3,5E-1,2.3446387E-1,-2.2353014E-1,1.4012687E-1,-2.4618706E-1,-1.8691061E-2,-2.5658578E-1,-1.0243473E-1,-1.2682352E-2,2.6425758E-1,-3.306618E-1,2.7694812E-2,9.231897E-1,4.9164668E-1,2.9989666E-1,-8.426367E-2,7.377044E-2,-8.328629E-2,-1.3963607E-1,-2.458949E-2,4.532265E-2,-1.6396482E-1,-2.0091222E-1,-1.0049403E-1,-2.966058E-1,-2.3566177E-1,-2.5017607E-1,9.8203145E-2],"split_indices":[5,4,1,0,1,43,1,4,61,1,11,1,0,1,0,33,1,1,1,1,1,11,5,0,0,5,0,0,0,